{"learner":{"attributes":{"scikit_learn":"{\"_estimator_type\": \"regressor\"}"},"feature_names":["Brand","Material","Size","Compartments","Laptop Compartment","Waterproof","Style","Color","Weight Capacity (kg)"],"feature_types":["int","int","int","float","int","int","int","int","int"],"gradient_booster":{"model":{"gbtree_model_param":{"num_parallel_tree":"1","num_trees":"200"},"iteration_indptr":[0,1,2,3,4,5,6,7,8,9,10,11,12,13,14,15,16,17,18,19,20,21,22,23,24,25,26,27,28,29,30,31,32,33,34,35,36,37,38,39,40,41,42,43,44,45,46,47,48,49,50,51,52,53,54,55,56,57,58,59,60,61,62,63,64,65,66,67,68,69,70,71,72,73,74,75,76,77,78,79,80,81,82,83,84,85,86,87,88,89,90,91,92,93,94,95,96,97,98,99,100,101,102,103,104,105,106,107,108,109,110,111,112,113,114,115,116,117,118,119,120,121,122,123,124,125,126,127,128,129,130,131,132,133,134,135,136,137,138,139,140,141,142,143,144,145,146,147,148,149,150,151,152,153,154,155,156,157,158,159,160,161,162,163,164,165,166,167,168,169,170,171,172,173,174,175,176,177,178,179,180,181,182,183,184,185,186,187,188,189,190,191,192,193,194,195,196,197,198,199,200],"tree_info":[0,0,0,0,0,0,0,0,0,0,0,0,0,0,0,0,0,0,0,0,0,0,0,0,0,0,0,0,0,0,0,0,0,0,0,0,0,0,0,0,0,0,0,0,0,0,0,0,0,0,0,0,0,0,0,0,0,0,0,0,0,0,0,0,0,0,0,0,0,0,0,0,0,0,0,0,0,0,0,0,0,0,0,0,0,0,0,0,0,0,0,0,0,0,0,0,0,0,0,0,0,0,0,0,0,0,0,0,0,0,0,0,0,0,0,0,0,0,0,0,0,0,0,0,0,0,0,0,0,0,0,0,0,0,0,0,0,0,0,0,0,0,0,0,0,0,0,0,0,0,0,0,0,0,0,0,0,0,0,0,0,0,0,0,0,0,0,0,0,0,0,0,0,0,0,0,0,0,0,0,0,0,0,0,0,0,0,0,0,0,0,0,0,0,0,0,0,0,0,0],"trees":[{"base_weights":[-2.00561E-6,-2.049109E0,4.037951E-1,-4.502224E0,-1.6669588E0,-6.441023E-1,5.9625566E-1,-4.3068676E0,-1.5175512E1,-1.5930784E0,-5.4213877E0,-1.4507495E0,-4.4261682E-1,-2.491234E-1,8.07613E-1,-2.8379114E0,-5.537527E0,-2.5522614E1,-4.7883425E0,-2.6217499E0,-1.4024595E0,-2.5069118E0,-7.7680287E0,-2.1275098E0,-1.1906879E0,-1.052313E0,-1.9857061E-1,-4.8294514E-1,3.098502E-1,5.2928627E-1,1.4746724E0,-2.6195216E0,-1.0667977E1,-4.634958E0,-1.0379263E1,-2.822073E1,1.4338212E0,-3.7652996E0,-3.4618305E1,-2.4128115E0,-3.413038E0,-2.1341822E0,-1.2224513E0,-2.8963146E0,1.11309E1,-8.150755E0,1.0365218E1,-1.9618196E0,-9.438109E0,-3.1402853E-1,-1.5839803E0,-9.41526E-1,-6.497265E0,-4.122345E-1,3.1933543E-1,2.810106E-1,-8.442802E-1,4.4634274E-1,-1.0269824E0,1.2254162E0,2.0515706E-1,1.5320933E0,-9.932155E-1,-4.1659233E-1,-2.2535434E-1,-4.732183E-1,-1.3785352E0,-4.4341332E-1,-1.086232E0,-5.469186E-1,-1.1734046E0,-3.0714476E0,-4.337917E-1,2.0202742E0,-3.28828E-1,-7.3125225E-1,-2.0964916E-1,-3.9027574E0,2.678354E0,-3.4482545E-1,-2.1991634E-1,-4.089311E-1,-2.7227008E-1,-1.1256894E-1,-2.4414907E-1,-1.0262852E-1,-1.9278345E-1,-2.6405808E-1,-2.5244353E0,2.1532981E-1,3.831646E0,-5.668592E-1,-1.0097905E0,2.3526545E0,5.9738386E-2,-8.532684E-2,-2.6140234E-1,-6.738825E-1,-1.1405026E0,1.3106126E-1,-7.898211E-2,-2.3600654E-1,-1.13743484E-1,-3.264764E-2,-1.3538401E-1,-6.988709E-1,3.5526154E0,3.1847727E-2,-7.51065E-2,4.329602E-2,-1.6825728E-1,1.1087433E-1,8.903416E-3,-1.4416318E-1,-5.9114564E-2,3.9348703E-2,2.3427299E-1,-8.83145E-2,-1.2097782E0,1.3259423E-1,-3.2468286E-1,-1.0789822E-2,5.2847423E-2,1.7168252E-1,8.9313574E-2,-1.4965181E-1,1.7041237E0],"categories":[],"categories_nodes":[],"categories_segments":[],"categories_sizes":[],"default_left":[0,0,0,0,0,0,0,0,0,0,0,0,0,0,0,0,0,0,0,0,0,0,0,0,0,0,0,0,0,0,0,0,0,0,0,0,0,0,0,0,0,0,0,0,0,0,0,0,0,0,0,0,0,0,0,0,0,0,0,0,0,0,0,0,0,0,0,0,0,0,0,0,0,0,0,0,0,0,0,0,0,0,0,0,0,0,0,0,0,0,0,0,0,0,0,0,0,0,0,0,0,0,0,0,0,0,0,0,0,0,0,0,0,0,0,0,0,0,0,0,0,0,0,0,0,0,0],"id":0,"left_children":[1,3,5,7,9,11,13,15,17,19,21,23,25,27,29,31,33,35,37,39,41,43,45,47,49,51,53,55,57,59,61,63,65,67,69,71,73,75,77,79,81,83,85,87,89,91,93,95,97,99,101,103,105,107,109,111,113,115,117,119,121,123,125,-1,-1,-1,-1,-1,-1,-1,-1,-1,-1,-1,-1,-1,-1,-1,-1,-1,-1,-1,-1,-1,-1,-1,-1,-1,-1,-1,-1,-1,-1,-1,-1,-1,-1,-1,-1,-1,-1,-1,-1,-1,-1,-1,-1,-1,-1,-1,-1,-1,-1,-1,-1,-1,-1,-1,-1,-1,-1,-1,-1,-1,-1,-1,-1],"loss_changes":[2.6439955E6,4.9312925E5,5.3836625E5,1.4776988E5,1.26236375E5,6.731866E4,4.0295612E5,1.2585675E5,1.3680362E5,8.751925E4,6.00495E4,1.4567047E4,4.9313246E4,5.8954562E4,3.3495938E5,5.425275E4,1.6551388E5,4.6443188E4,1.9309193E4,1.1528531E4,4.9598375E4,2.0844494E4,3.3847906E4,2.7815812E4,2.0618938E4,5.7142633E4,2.6191066E4,8.779106E4,2.4275047E4,2.872351E5,7.5269875E4,1.7468812E4,1.5866789E4,3.9889938E4,3.9529062E4,3.441022E4,5.295528E3,3.637083E3,6.7307812E3,1.2205344E4,6.7928438E3,2.3039062E4,4.181797E4,2.1713797E4,2.6520154E4,2.2972688E4,1.2970266E4,1.6244336E4,2.6255586E3,1.43183955E4,1.4304227E4,2.3545719E4,3.9260234E4,4.1485492E4,1.5724801E4,1.6227617E4,3.2647125E4,1.2098531E4,1.9615586E4,1.8182419E5,8.7914375E4,6.1268E4,1.096549E5,0E0,0E0,0E0,0E0,0E0,0E0,0E0,0E0,0E0,0E0,0E0,0E0,0E0,0E0,0E0,0E0,0E0,0E0,0E0,0E0,0E0,0E0,0E0,0E0,0E0,0E0,0E0,0E0,0E0,0E0,0E0,0E0,0E0,0E0,0E0,0E0,0E0,0E0,0E0,0E0,0E0,0E0,0E0,0E0,0E0,0E0,0E0,0E0,0E0,0E0,0E0,0E0,0E0,0E0,0E0,0E0,0E0,0E0,0E0,0E0,0E0,0E0,0E0,0E0],"parents":[2147483647,0,0,1,1,2,2,3,3,4,4,5,5,6,6,7,7,8,8,9,9,10,10,11,11,12,12,13,13,14,14,15,15,16,16,17,17,18,18,19,19,20,20,21,21,22,22,23,23,24,24,25,25,26,26,27,27,28,28,29,29,30,30,31,31,32,32,33,33,34,34,35,35,36,36,37,37,38,38,39,39,40,40,41,41,42,42,43,43,44,44,45,45,46,46,47,47,48,48,49,49,50,50,51,51,52,52,53,53,54,54,55,55,56,56,57,57,58,58,59,59,60,60,61,61,62,62],"right_children":[2,4,6,8,10,12,14,16,18,20,22,24,26,28,30,32,34,36,38,40,42,44,46,48,50,52,54,56,58,60,62,64,66,68,70,72,74,76,78,80,82,84,86,88,90,92,94,96,98,100,102,104,106,108,110,112,114,116,118,120,122,124,126,-1,-1,-1,-1,-1,-1,-1,-1,-1,-1,-1,-1,-1,-1,-1,-1,-1,-1,-1,-1,-1,-1,-1,-1,-1,-1,-1,-1,-1,-1,-1,-1,-1,-1,-1,-1,-1,-1,-1,-1,-1,-1,-1,-1,-1,-1,-1,-1,-1,-1,-1,-1,-1,-1,-1,-1,-1,-1,-1,-1,-1,-1,-1,-1],"split_conditions":[3.12015E5,1.4228E4,1E0,3E0,3E0,1E0,1E0,5E0,9E0,1E0,5E0,7.72482E5,7.79211E5,3E0,3E0,3E0,7.51E3,5E0,7.51E3,2.42926E5,1E0,5E0,5E0,3E0,1.128105E6,3E0,3E0,1E0,4E0,1E0,3E0,1E0,2E0,3E0,6E0,6E0,2E0,1E0,6E0,5.3886E4,6E0,1E0,2.42926E5,4E0,1.78185E5,1.45488E5,2E0,4.84396E5,5E0,1E0,1.420115E6,4.99311E5,5E0,1E0,1.860744E6,2E0,8.00072E5,3E0,3E0,3E0,2E0,5E0,5E0,-4.1659233E-1,-2.2535434E-1,-4.732183E-1,-1.3785352E0,-4.4341332E-1,-1.086232E0,-5.469186E-1,-1.1734046E0,-3.0714476E0,-4.337917E-1,2.0202742E0,-3.28828E-1,-7.3125225E-1,-2.0964916E-1,-3.9027574E0,2.678354E0,-3.4482545E-1,-2.1991634E-1,-4.089311E-1,-2.7227008E-1,-1.1256894E-1,-2.4414907E-1,-1.0262852E-1,-1.9278345E-1,-2.6405808E-1,-2.5244353E0,2.1532981E-1,3.831646E0,-5.668592E-1,-1.0097905E0,2.3526545E0,5.9738386E-2,-8.532684E-2,-2.6140234E-1,-6.738825E-1,-1.1405026E0,1.3106126E-1,-7.898211E-2,-2.3600654E-1,-1.13743484E-1,-3.264764E-2,-1.3538401E-1,-6.988709E-1,3.5526154E0,3.1847727E-2,-7.51065E-2,4.329602E-2,-1.6825728E-1,1.1087433E-1,8.903416E-3,-1.4416318E-1,-5.9114564E-2,3.9348703E-2,2.3427299E-1,-8.83145E-2,-1.2097782E0,1.3259423E-1,-3.2468286E-1,-1.0789822E-2,5.2847423E-2,1.7168252E-1,8.9313574E-2,-1.4965181E-1,1.7041237E0],"split_indices":[8,8,7,2,2,0,0,3,3,7,3,8,8,1,1,6,8,0,8,8,0,0,0,2,8,2,1,1,1,1,2,0,3,6,3,7,3,6,7,8,3,1,8,1,8,8,5,8,3,1,8,8,0,1,8,7,8,6,2,2,1,7,0,0,0,0,0,0,0,0,0,0,0,0,0,0,0,0,0,0,0,0,0,0,0,0,0,0,0,0,0,0,0,0,0,0,0,0,0,0,0,0,0,0,0,0,0,0,0,0,0,0,0,0,0,0,0,0,0,0,0,0,0,0,0,0,0],"split_type":[0,0,0,0,0,0,0,0,0,0,0,0,0,0,0,0,0,0,0,0,0,0,0,0,0,0,0,0,0,0,0,0,0,0,0,0,0,0,0,0,0,0,0,0,0,0,0,0,0,0,0,0,0,0,0,0,0,0,0,0,0,0,0,0,0,0,0,0,0,0,0,0,0,0,0,0,0,0,0,0,0,0,0,0,0,0,0,0,0,0,0,0,0,0,0,0,0,0,0,0,0,0,0,0,0,0,0,0,0,0,0,0,0,0,0,0,0,0,0,0,0,0,0,0,0,0,0],"sum_hessian":[3.195454E6,5.26035E5,2.669419E6,7.09E4,4.55135E5,4.14201E5,2.255218E6,6.9627E4,1.273E3,4.46353E5,8.782E3,8.2781E4,3.3142E5,4.51065E5,1.804153E6,3.1742E4,3.7885E4,6.37E2,6.36E2,6.9779E4,3.76574E5,3.918E3,4.864E3,2.2978E4,5.9803E4,9.4737E4,2.36683E5,3.18031E5,1.33034E5,1.273002E6,5.31151E5,3.0882E4,8.6E2,3.1934E4,5.951E3,5.79E2,5.8E1,6.16E2,2E1,5.5206E4,1.4573E4,7.4347E4,3.02227E5,3.81E3,1.08E2,4.764E3,1E2,2.247E4,5.08E2,1.8521E4,4.1282E4,9.2849E4,1.888E3,1.67557E5,6.9126E4,1.02121E5,2.1591E5,1.2071E5,1.2324E4,4.04423E5,8.68579E5,5.19074E5,1.2077E4,5.908E3,2.4974E4,2.97E2,5.63E2,3.0938E4,9.96E2,1.288E3,4.663E3,5.24E2,5.5E1,1.1E1,4.7E1,1.96E2,4.2E2,1.9E1,1E0,9.44E3,4.5766E4,7.359E3,7.214E3,1.7365E4,5.6982E4,2.36468E5,6.5759E4,3.768E3,4.2E1,8.2E1,2.6E1,2.096E3,2.668E3,4.2E1,5.8E1,8.324E3,1.4146E4,2.16E2,2.92E2,4.195E3,1.4326E4,1.5076E4,2.6206E4,3.7264E4,5.5585E4,1.867E3,2.1E1,5.3082E4,1.14475E5,6.5414E4,3.712E3,1.9225E4,8.2896E4,6.4261E4,1.51649E5,1.17438E5,3.272E3,1.2167E4,1.57E2,3.95533E5,8.89E3,4.41293E5,4.27286E5,4.02658E5,1.16416E5,1.175E4,3.27E2],"tree_param":{"num_deleted":"0","num_feature":"9","num_nodes":"127","size_leaf_vector":"1"}},{"base_weights":[-5.029671E-6,-1.8442147E0,3.6341497E-1,-4.052138E0,-1.5002607E0,-5.796923E-1,5.3662944E-1,-3.8762624E0,-1.3661083E1,-1.433773E0,-4.87901E0,-7.85481E-1,9.513116E-2,-2.2421499E-1,7.268519E-1,-2.5541961E0,-4.983861E0,-2.2973194E1,-4.3129077E0,-2.3595924E0,-1.2622133E0,-2.2558968E0,-6.9910564E0,-1.4051903E0,-5.4419506E-1,-1.774556E-1,7.547194E-1,-4.3465173E-1,2.7885443E-1,4.7635734E-1,1.3272065E0,-2.3575876E0,-9.603332E0,-4.17151E0,-9.341628E0,-2.54047E1,1.3191073E0,-3.3902946E0,-3.121478E1,-2.1715398E0,-3.0717826E0,-1.0875698E0,-1.8904961E0,-2.607412E0,1.0054936E1,-7.3360124E0,9.352582E0,-1.2898409E0,-6.7351933E0,-1.0716227E0,-3.571704E-1,-2.6434672E-1,2.8829422E0,-5.9502137E-1,9.1464025E-1,2.5290996E-1,-7.5985396E-1,4.0170702E-1,-9.243862E-1,1.102877E0,1.8463977E-1,1.3788822E0,-8.9376646E-1,-1.6387513E-1,-3.0332848E-1,-4.2605504E-1,-1.2409264E0,-4.364744E-1,2.0611504E-1,-4.9226895E-1,-1.0560898E0,-2.7648878E0,-3.911871E-1,1.2425734E0,-6.121952E-1,-1.4410539E-1,-6.097025E-1,-3.5319958E0,2.5444362E0,-3.103465E-1,-1.979251E-1,-3.6804387E-1,-2.4504685E-1,-2.0830245E-1,-9.703897E-2,-1.0078309E-1,-2.1615677E-1,-2.3765898E-1,-2.2778623E0,1.9405606E-1,3.4626725E0,-5.1020056E-1,-9.0884954E-1,2.1228604E0,5.386582E-2,-6.011643E-2,-1.7580311E-1,-1.697651E-1,-8.1703883E-1,-2.3004651E-2,-1.4050885E-1,1.9104198E-2,-6.30353E-2,-1.1613863E-1,-3.7580372E-3,6.6790456E-1,1.1264099E-1,-2.0204695E-1,2.0143788E-1,1.01136796E-1,-3.4090245E-1,3.1207556E-2,-2.3639312E-1,-1.1271427E-1,-3.7622605E-2,4.6821576E-2,-9.868046E-2,-7.948344E-2,-1.0895661E0,1.1933514E-1,-2.922181E-1,-1.7806316E-3,6.815448E-2,1.5451413E-1,8.038192E-2,-1.8040044E-2,-1.3039885E0],"categories":[],"categories_nodes":[],"categories_segments":[],"categories_sizes":[],"default_left":[0,0,0,0,0,0,0,0,0,0,0,0,0,0,0,0,0,0,0,0,0,0,0,0,0,0,0,0,0,0,0,0,0,0,0,0,0,0,0,0,0,0,0,0,0,0,0,0,0,0,0,0,0,0,0,0,0,0,0,0,0,0,0,0,0,0,0,0,0,0,0,0,0,0,0,0,0,0,0,0,0,0,0,0,0,0,0,0,0,0,0,0,0,0,0,0,0,0,0,0,0,0,0,0,0,0,0,0,0,0,0,0,0,0,0,0,0,0,0,0,0,0,0,0,0,0,0],"id":1,"left_children":[1,3,5,7,9,11,13,15,17,19,21,23,25,27,29,31,33,35,37,39,41,43,45,47,49,51,53,55,57,59,61,63,65,67,69,71,73,75,77,79,81,83,85,87,89,91,93,95,97,99,101,103,105,107,109,111,113,115,117,119,121,123,125,-1,-1,-1,-1,-1,-1,-1,-1,-1,-1,-1,-1,-1,-1,-1,-1,-1,-1,-1,-1,-1,-1,-1,-1,-1,-1,-1,-1,-1,-1,-1,-1,-1,-1,-1,-1,-1,-1,-1,-1,-1,-1,-1,-1,-1,-1,-1,-1,-1,-1,-1,-1,-1,-1,-1,-1,-1,-1,-1,-1,-1,-1,-1,-1],"loss_changes":[2.141667E6,3.9947838E5,4.360763E5,1.19768E5,1.02237125E5,5.7520703E4,3.263972E5,1.01944875E5,1.1080419E5,7.089294E4,4.8643234E4,4.746036E4,1.7403393E4,4.775189E4,2.7131812E5,4.397061E4,1.3407881E5,3.7718156E4,1.5704526E4,9.338906E3,4.1317812E4,1.6985482E4,2.7496719E4,5.467892E4,2.2535266E4,1.8213982E4,6.1102275E3,7.111106E4,1.966577E4,2.3266244E5,6.096175E4,1.4995375E4,1.2854797E4,3.847025E4,3.2016625E4,2.7867438E4,4.9521284E3,3.2465469E3,5.783203E3,9.886891E3,5.5023906E3,3.4370375E4,1.9595344E4,1.7689756E4,2.1665734E4,1.8608875E4,1.0560675E4,2.8072094E4,1.3607164E4,1.6782875E4,2.5258389E4,1.3547824E4,1.2601624E4,1.1159044E4,1.0587285E4,1.5811982E4,3.0421906E4,1.1147896E4,1.5912728E4,1.4728038E5,8.737609E4,4.9627188E4,1.0464902E5,0E0,0E0,0E0,0E0,0E0,0E0,0E0,0E0,0E0,0E0,0E0,0E0,0E0,0E0,0E0,0E0,0E0,0E0,0E0,0E0,0E0,0E0,0E0,0E0,0E0,0E0,0E0,0E0,0E0,0E0,0E0,0E0,0E0,0E0,0E0,0E0,0E0,0E0,0E0,0E0,0E0,0E0,0E0,0E0,0E0,0E0,0E0,0E0,0E0,0E0,0E0,0E0,0E0,0E0,0E0,0E0,0E0,0E0,0E0,0E0,0E0,0E0,0E0,0E0],"parents":[2147483647,0,0,1,1,2,2,3,3,4,4,5,5,6,6,7,7,8,8,9,9,10,10,11,11,12,12,13,13,14,14,15,15,16,16,17,17,18,18,19,19,20,20,21,21,22,22,23,23,24,24,25,25,26,26,27,27,28,28,29,29,30,30,31,31,32,32,33,33,34,34,35,35,36,36,37,37,38,38,39,39,40,40,41,41,42,42,43,43,44,44,45,45,46,46,47,47,48,48,49,49,50,50,51,51,52,52,53,53,54,54,55,55,56,56,57,57,58,58,59,59,60,60,61,61,62,62],"right_children":[2,4,6,8,10,12,14,16,18,20,22,24,26,28,30,32,34,36,38,40,42,44,46,48,50,52,54,56,58,60,62,64,66,68,70,72,74,76,78,80,82,84,86,88,90,92,94,96,98,100,102,104,106,108,110,112,114,116,118,120,122,124,126,-1,-1,-1,-1,-1,-1,-1,-1,-1,-1,-1,-1,-1,-1,-1,-1,-1,-1,-1,-1,-1,-1,-1,-1,-1,-1,-1,-1,-1,-1,-1,-1,-1,-1,-1,-1,-1,-1,-1,-1,-1,-1,-1,-1,-1,-1,-1,-1,-1,-1,-1,-1,-1,-1,-1,-1,-1,-1,-1,-1,-1,-1,-1,-1],"split_conditions":[3.12015E5,1.4228E4,1E0,3E0,3E0,4E0,1E0,5E0,9E0,1E0,5E0,7.72482E5,3E0,3E0,3E0,3E0,7.51E3,5E0,7.51E3,2.42926E5,2.42926E5,5E0,5E0,3E0,1E0,3E0,2E0,1E0,4E0,1E0,3E0,1E0,2E0,4E0,6E0,6E0,2E0,3E0,6E0,5.3886E4,6E0,3.7938E4,1E0,4E0,1.78185E5,1.45488E5,2E0,4.99311E5,3E0,1.099983E6,2E0,6.40183E5,8.22752E5,1.350157E6,1.889844E6,3E0,2E0,1.84505E6,3E0,3E0,4E0,5E0,4E0,-1.6387513E-1,-3.0332848E-1,-4.2605504E-1,-1.2409264E0,-4.364744E-1,2.0611504E-1,-4.9226895E-1,-1.0560898E0,-2.7648878E0,-3.911871E-1,1.2425734E0,-6.121952E-1,-1.4410539E-1,-6.097025E-1,-3.5319958E0,2.5444362E0,-3.103465E-1,-1.979251E-1,-3.6804387E-1,-2.4504685E-1,-2.0830245E-1,-9.703897E-2,-1.0078309E-1,-2.1615677E-1,-2.3765898E-1,-2.2778623E0,1.9405606E-1,3.4626725E0,-5.1020056E-1,-9.0884954E-1,2.1228604E0,5.386582E-2,-6.011643E-2,-1.7580311E-1,-1.697651E-1,-8.1703883E-1,-2.3004651E-2,-1.4050885E-1,1.9104198E-2,-6.30353E-2,-1.1613863E-1,-3.7580372E-3,6.6790456E-1,1.1264099E-1,-2.0204695E-1,2.0143788E-1,1.01136796E-1,-3.4090245E-1,3.1207556E-2,-2.3639312E-1,-1.1271427E-1,-3.7622605E-2,4.6821576E-2,-9.868046E-2,-7.948344E-2,-1.0895661E0,1.1933514E-1,-2.922181E-1,-1.7806316E-3,6.815448E-2,1.5451413E-1,8.038192E-2,-1.8040044E-2,-1.3039885E0],"split_indices":[8,8,7,2,2,0,0,3,3,7,3,8,1,1,1,6,8,0,8,8,8,0,0,2,0,6,3,1,1,1,2,5,3,1,3,7,5,0,7,8,3,8,1,1,8,8,5,8,3,8,0,8,8,8,8,2,1,8,2,2,0,7,1,0,0,0,0,0,0,0,0,0,0,0,0,0,0,0,0,0,0,0,0,0,0,0,0,0,0,0,0,0,0,0,0,0,0,0,0,0,0,0,0,0,0,0,0,0,0,0,0,0,0,0,0,0,0,0,0,0,0,0,0,0,0,0,0],"split_type":[0,0,0,0,0,0,0,0,0,0,0,0,0,0,0,0,0,0,0,0,0,0,0,0,0,0,0,0,0,0,0,0,0,0,0,0,0,0,0,0,0,0,0,0,0,0,0,0,0,0,0,0,0,0,0,0,0,0,0,0,0,0,0,0,0,0,0,0,0,0,0,0,0,0,0,0,0,0,0,0,0,0,0,0,0,0,0,0,0,0,0,0,0,0,0,0,0,0,0,0,0,0,0,0,0,0,0,0,0,0,0,0,0,0,0,0,0,0,0,0,0,0,0,0,0,0,0],"sum_hessian":[3.195454E6,5.26035E5,2.669419E6,7.09E4,4.55135E5,4.14201E5,2.255218E6,6.9627E4,1.273E3,4.46353E5,8.782E3,3.17407E5,9.6794E4,4.51065E5,1.804153E6,3.1742E4,3.7885E4,6.37E2,6.36E2,6.9779E4,3.76574E5,3.918E3,4.864E3,8.8949E4,2.28458E5,6.849E4,2.8304E4,3.18031E5,1.33034E5,1.273002E6,5.31151E5,3.0882E4,8.6E2,3.1934E4,5.951E3,5.79E2,5.8E1,6.16E2,2E1,5.5206E4,1.4573E4,2.94668E5,8.1906E4,3.81E3,1.08E2,4.764E3,1E2,8.7066E4,1.883E3,5.9803E4,1.68655E5,6.66E4,1.89E3,2.998E3,2.5306E4,1.02121E5,2.1591E5,1.2071E5,1.2324E4,4.04423E5,8.68579E5,5.19074E5,1.2077E4,1.4965E4,1.5917E4,2.97E2,5.63E2,3.0974E4,9.6E2,1.288E3,4.663E3,5.24E2,5.5E1,2.3E1,3.5E1,3.59E2,2.57E2,1.9E1,1E0,9.44E3,4.5766E4,7.359E3,7.214E3,3.1032E4,2.63636E5,1.9245E4,6.2661E4,3.768E3,4.2E1,8.2E1,2.6E1,2.096E3,2.668E3,4.2E1,5.8E1,3.5237E4,5.1829E4,4.18E2,1.465E3,1.6972E4,4.2831E4,5.6092E4,1.12563E5,1.3438E4,5.3162E4,5.97E2,1.293E3,1.939E3,1.059E3,2.4753E4,5.53E2,9.9864E4,2.257E3,1.10303E5,1.05607E5,1.15193E5,5.517E3,1.2167E4,1.57E2,3.95533E5,8.89E3,6.17146E5,2.51433E5,4.02658E5,1.16416E5,1.1408E4,6.69E2],"tree_param":{"num_deleted":"0","num_feature":"9","num_nodes":"127","size_leaf_vector":"1"}},{"base_weights":[-7.650023E-6,-1.6598088E0,3.2707283E-1,-3.6470382E0,-1.3502349E0,-5.217247E-1,4.8296604E-1,-3.4886913E0,-1.2298326E1,-1.2904003E0,-4.390894E0,-7.0693713E-1,8.56251E-2,-2.0179616E-1,6.5416676E-1,-2.2988446E0,-4.485519E0,-2.0679836E1,-3.884351E0,-2.123651E0,-1.135994E0,-2.030019E0,-6.291794E0,-1.2646831E0,-4.8977685E-1,-1.9942766E-1,6.0673964E-1,-6.879805E-1,6.2897205E-3,4.287215E-1,1.1944863E0,-2.121845E0,-8.644933E0,-3.7543635E0,-8.407723E0,-2.2869673E1,1.1978812E0,-3.0524874E0,-2.8140327E1,-1.6603228E0,-2.362464E0,-1.7946074E0,-9.739715E-1,-2.3473341E0,9.0829935E0,-6.602708E0,8.438875E0,-1.1608576E0,-6.062198E0,-6.9012505E-1,-6.6031907E-3,-5.2881646E-1,5.990983E-1,-3.376613E-1,1.0318004E0,-3.704126E-1,-2.248643E0,7.9145126E-2,-1.2792875E0,9.9259263E-1,1.6617407E-1,1.240997E0,-8.0449617E-1,-3.5145155E-1,-1.792259E-1,-3.8359243E-1,-1.1170535E0,-3.573255E-1,-9.370781E-1,-4.4308E-1,-9.505032E-1,-2.488926E0,-3.527667E-1,1.8293749E0,-3.1010416E-1,-6.240714E-1,-1.5533589E-1,-3.196456E0,2.4172146E0,-2.782478E-1,-1.3800363E-1,-2.2186749E-1,-3.6090958E-1,-9.066504E-2,-2.0651875E-1,-1.1769056E-1,-4.7756527E-2,-2.1389972E-1,-2.0553734E0,-1.6130178E-1,2.4330943E0,-4.5920482E-1,-8.179984E-1,1.9155108E0,4.8570763E-2,-5.4104634E-2,-1.5822303E-1,-3.2256496E-1,-8.317005E-1,8.639522E-3,-1.0504395E-1,1.1991292E-2,-2.2862987E-1,-1.254865E-1,-3.454881E-2,6.487287E-2,-5.742429E-1,-1.0214566E0,-2.8529644E-2,1.2575917E-1,-5.5677444E-2,2.0282697E-2,-7.027254E-2,-2.6666033E-1,-4.641585E-2,-1.1295929E-2,5.3548247E-2,-2.4631575E-1,-7.3114775E-2,1.0740203E-1,-2.6299927E-1,-1.1539138E-2,4.569692E-2,1.29714E-1,-4.2144235E-2,-1.2597863E-1,1.5509279E0],"categories":[],"categories_nodes":[],"categories_segments":[],"categories_sizes":[],"default_left":[0,0,0,0,0,0,0,0,0,0,0,0,0,0,0,0,0,0,0,0,0,0,0,0,0,0,0,0,0,0,0,0,0,0,0,0,0,0,0,0,0,0,0,0,0,0,0,0,0,0,0,0,0,0,0,0,0,0,0,0,0,0,0,0,0,0,0,0,0,0,0,0,0,0,0,0,0,0,0,0,0,0,0,0,0,0,0,0,0,0,0,0,0,0,0,0,0,0,0,0,0,0,0,0,0,0,0,0,0,0,0,0,0,0,0,0,0,0,0,0,0,0,0,0,0,0,0],"id":2,"left_children":[1,3,5,7,9,11,13,15,17,19,21,23,25,27,29,31,33,35,37,39,41,43,45,47,49,51,53,55,57,59,61,63,65,67,69,71,73,75,77,79,81,83,85,87,89,91,93,95,97,99,101,103,105,107,109,111,113,115,117,119,121,123,125,-1,-1,-1,-1,-1,-1,-1,-1,-1,-1,-1,-1,-1,-1,-1,-1,-1,-1,-1,-1,-1,-1,-1,-1,-1,-1,-1,-1,-1,-1,-1,-1,-1,-1,-1,-1,-1,-1,-1,-1,-1,-1,-1,-1,-1,-1,-1,-1,-1,-1,-1,-1,-1,-1,-1,-1,-1,-1,-1,-1,-1,-1,-1,-1],"loss_changes":[1.7347765E6,3.2360938E5,3.532227E5,9.708481E4,8.280044E4,4.659311E4,2.6438344E5,8.25735E4,8.9764484E4,5.7425062E4,3.9403453E4,3.8443938E4,1.4378547E4,4.5633492E4,2.1976794E5,3.5637156E4,1.08615625E5,3.0593094E4,1.2767274E4,7.7171562E3,4.0182625E4,1.3841003E4,2.2337281E4,4.4299406E4,2.2115508E4,1.6457824E4,1.3739617E4,6.7003016E4,2.9585254E4,1.884589E5,4.9384312E4,1.4169156E4,1.0414547E4,3.2450219E4,2.5931906E4,2.2568625E4,4.3928647E3,2.9392964E3,4.9738066E3,7.462043E3,8.245469E3,1.7861234E4,3.0445188E4,1.4411418E4,1.7816299E4,1.5074E4,8.598725E3,2.273857E4,1.2022984E4,4.5185008E4,1.9314201E4,5.8958633E3,5.7548286E3,5.491848E3,8.46677E3,2.139957E4,1.7047281E4,2.6205936E4,1.099166E4,1.1929928E5,7.111752E4,4.8448062E4,8.972887E4,0E0,0E0,0E0,0E0,0E0,0E0,0E0,0E0,0E0,0E0,0E0,0E0,0E0,0E0,0E0,0E0,0E0,0E0,0E0,0E0,0E0,0E0,0E0,0E0,0E0,0E0,0E0,0E0,0E0,0E0,0E0,0E0,0E0,0E0,0E0,0E0,0E0,0E0,0E0,0E0,0E0,0E0,0E0,0E0,0E0,0E0,0E0,0E0,0E0,0E0,0E0,0E0,0E0,0E0,0E0,0E0,0E0,0E0,0E0,0E0,0E0,0E0,0E0,0E0],"parents":[2147483647,0,0,1,1,2,2,3,3,4,4,5,5,6,6,7,7,8,8,9,9,10,10,11,11,12,12,13,13,14,14,15,15,16,16,17,17,18,18,19,19,20,20,21,21,22,22,23,23,24,24,25,25,26,26,27,27,28,28,29,29,30,30,31,31,32,32,33,33,34,34,35,35,36,36,37,37,38,38,39,39,40,40,41,41,42,42,43,43,44,44,45,45,46,46,47,47,48,48,49,49,50,50,51,51,52,52,53,53,54,54,55,55,56,56,57,57,58,58,59,59,60,60,61,61,62,62],"right_children":[2,4,6,8,10,12,14,16,18,20,22,24,26,28,30,32,34,36,38,40,42,44,46,48,50,52,54,56,58,60,62,64,66,68,70,72,74,76,78,80,82,84,86,88,90,92,94,96,98,100,102,104,106,108,110,112,114,116,118,120,122,124,126,-1,-1,-1,-1,-1,-1,-1,-1,-1,-1,-1,-1,-1,-1,-1,-1,-1,-1,-1,-1,-1,-1,-1,-1,-1,-1,-1,-1,-1,-1,-1,-1,-1,-1,-1,-1,-1,-1,-1,-1,-1,-1,-1,-1,-1,-1,-1,-1,-1,-1,-1,-1,-1,-1,-1,-1,-1,-1,-1,-1,-1,-1,-1,-1],"split_conditions":[3.12015E5,1.4228E4,1E0,3E0,3E0,4E0,1E0,5E0,9E0,1E0,5E0,7.72482E5,2E0,8.00072E5,3E0,3E0,7.51E3,5E0,7.51E3,1E0,1E0,5E0,5E0,3E0,3E0,3E0,4E0,7.2318E5,1.860744E6,1E0,3E0,1E0,2E0,3E0,6E0,6E0,2E0,1E0,6E0,1E0,2.76699E5,1E0,3E0,4E0,3E0,1.45488E5,2E0,4.99311E5,5E0,1E0,1.860744E6,6.40183E5,1.912672E6,3.19266E5,1.723626E6,4.61997E5,7.8589E5,3E0,4E0,3E0,2E0,1.86783E6,5E0,-3.5145155E-1,-1.792259E-1,-3.8359243E-1,-1.1170535E0,-3.573255E-1,-9.370781E-1,-4.4308E-1,-9.505032E-1,-2.488926E0,-3.527667E-1,1.8293749E0,-3.1010416E-1,-6.240714E-1,-1.5533589E-1,-3.196456E0,2.4172146E0,-2.782478E-1,-1.3800363E-1,-2.2186749E-1,-3.6090958E-1,-9.066504E-2,-2.0651875E-1,-1.1769056E-1,-4.7756527E-2,-2.1389972E-1,-2.0553734E0,-1.6130178E-1,2.4330943E0,-4.5920482E-1,-8.179984E-1,1.9155108E0,4.8570763E-2,-5.4104634E-2,-1.5822303E-1,-3.2256496E-1,-8.317005E-1,8.639522E-3,-1.0504395E-1,1.1991292E-2,-2.2862987E-1,-1.254865E-1,-3.454881E-2,6.487287E-2,-5.742429E-1,-1.0214566E0,-2.8529644E-2,1.2575917E-1,-5.5677444E-2,2.0282697E-2,-7.027254E-2,-2.6666033E-1,-4.641585E-2,-1.1295929E-2,5.3548247E-2,-2.4631575E-1,-7.3114775E-2,1.0740203E-1,-2.6299927E-1,-1.1539138E-2,4.569692E-2,1.29714E-1,-4.2144235E-2,-1.2597863E-1,1.5509279E0],"split_indices":[8,8,7,2,2,0,0,3,3,7,3,8,6,8,1,6,8,0,8,2,0,0,0,2,1,1,3,8,8,1,2,0,3,6,3,7,3,6,7,0,8,1,1,1,3,8,5,8,3,1,8,8,8,8,8,8,8,1,3,2,1,8,0,0,0,0,0,0,0,0,0,0,0,0,0,0,0,0,0,0,0,0,0,0,0,0,0,0,0,0,0,0,0,0,0,0,0,0,0,0,0,0,0,0,0,0,0,0,0,0,0,0,0,0,0,0,0,0,0,0,0,0,0,0,0,0,0],"split_type":[0,0,0,0,0,0,0,0,0,0,0,0,0,0,0,0,0,0,0,0,0,0,0,0,0,0,0,0,0,0,0,0,0,0,0,0,0,0,0,0,0,0,0,0,0,0,0,0,0,0,0,0,0,0,0,0,0,0,0,0,0,0,0,0,0,0,0,0,0,0,0,0,0,0,0,0,0,0,0,0,0,0,0,0,0,0,0,0,0,0,0,0,0,0,0,0,0,0,0,0,0,0,0,0,0,0,0,0,0,0,0,0,0,0,0,0,0,0,0,0,0,0,0,0,0,0,0],"sum_hessian":[3.195454E6,5.26035E5,2.669419E6,7.09E4,4.55135E5,4.14201E5,2.255218E6,6.9627E4,1.273E3,4.46353E5,8.782E3,3.17407E5,9.6794E4,4.51065E5,1.804153E6,3.1742E4,3.7885E4,6.37E2,6.36E2,6.9779E4,3.76574E5,3.918E3,4.864E3,8.8949E4,2.28458E5,6.2569E4,3.4225E4,1.35192E5,3.15873E5,1.273002E6,5.31151E5,3.0882E4,8.6E2,3.1934E4,5.951E3,5.79E2,5.8E1,6.16E2,2E1,2.3736E4,4.6043E4,7.4347E4,3.02227E5,3.81E3,1.08E2,4.764E3,1E2,8.7066E4,1.883E3,1.61494E5,6.6964E4,4.4297E4,1.8272E4,1.0623E4,2.3602E4,1.12335E5,2.2857E4,2.98933E5,1.694E4,4.04423E5,8.68579E5,5.19074E5,1.2077E4,5.908E3,2.4974E4,2.97E2,5.63E2,3.0938E4,9.96E2,1.288E3,4.663E3,5.24E2,5.5E1,1.1E1,4.7E1,1.96E2,4.2E2,1.9E1,1E0,4.742E3,1.8994E4,4.1284E4,4.759E3,1.7365E4,5.6982E4,2.14526E5,8.7701E4,3.768E3,4.2E1,6.4E1,4.4E1,2.096E3,2.668E3,4.2E1,5.8E1,3.5237E4,5.1829E4,8.35E2,1.048E3,5.1185E4,1.10309E5,6.3444E4,3.52E3,8.929E3,3.5368E4,1.8131E4,1.41E2,5.5E1,1.0568E4,2.0665E4,2.937E3,4.1224E4,7.1111E4,1.8519E4,4.338E3,2.10373E5,8.856E4,5.36E3,1.158E4,3.95533E5,8.89E3,4.41293E5,4.27286E5,5.02117E5,1.6957E4,1.175E4,3.27E2],"tree_param":{"num_deleted":"0","num_feature":"9","num_nodes":"127","size_leaf_vector":"1"}},{"base_weights":[-1.0702764E-5,-1.4938432E0,2.9436398E-1,-3.127511E0,-1.1865389E0,-4.695607E-1,4.3466914E-1,-3.0030909E0,-1.037619E1,-1.131324E0,-3.9567275E0,-1.1187056E0,-3.0741653E-1,-1.8161629E-1,5.8874965E-1,-2.101584E0,-3.7335744E0,-1.7149618E1,-3.4712603E0,-1.8921691E0,-9.9014944E-1,-1.8350587E0,-5.674984E0,-4.7681755E-1,-1.3104589E0,-2.591835E-1,-2.4450407E0,4.4667548E-1,-3.2608736E-1,6.3772786E-1,-1.5243695E0,-1.9635447E0,-7.0617785E0,-3.8887234E0,1.9866922E0,-1.8999418E1,1.4699482E0,-4.5660276E0,2.61765E-1,-1.7217612E0,-2.5160377E0,-8.1787074E-1,-1.5880278E0,-2.1301394E0,8.879258E0,-4.1056657E0,-7.52282E0,1.4250697E0,-6.9127154E-1,-1.7577024E0,-5.8255595E-1,-4.4823408E-1,2.000592E-1,-3.0080712E0,2.2906706E1,1.0050628E0,2.8177008E-1,-5.213075E-1,1.4097919E-1,4.3782198E-1,1.1168965E0,-1.918904E0,1.6427559E1,-2.59958E-1,-1.2951379E-1,-7.7493066E-1,2.5458795E-1,-3.769575E-1,-8.266083E-1,-7.099916E-1,5.275479E-1,-2.0611508E0,-2.0078515E-1,1.0537423E0,-7.6420695E-1,-7.744774E-1,-2.1203001E-1,8.5278624E-1,-1.0103649E0,-2.5832215E-1,-1.5786521E-1,-1.9093531E-1,-3.0886373E-1,-9.039879E-2,2.9075623E-2,-7.946014E-2,-1.8316956E-1,-1.921917E-1,-2.056658E0,1.3856937E-1,3.0198474E0,-1.5697315E0,-3.6671248E-1,-1.0234969E0,-5.4318357E-1,3.4759462E-1,-5.78985E-2,-1.9353102E-1,-3.544643E-2,-2.1216412E-1,-8.244046E-2,-1.3005443E-1,1.391001E-2,1.479698E-2,-7.3001966E-2,-7.194627E-2,3.0881891E-2,-3.6579812E-1,9.726289E-2,2.8925247E0,-1.8832892E-1,1.4401966E-1,1.103615E-2,1.2606572E-1,1.54605005E-2,8.75532E-3,-8.085057E-2,2.6135895E-2,-1.04418635E-1,9.666216E-2,1.9136967E-2,1.2203332E-1,3.4122173E-2,-1.7733632E-2,-3.320891E-1,2.6423361E0,8.903018E-1],"categories":[],"categories_nodes":[],"categories_segments":[],"categories_sizes":[],"default_left":[0,0,0,0,0,0,0,0,0,0,0,0,0,0,0,0,0,0,0,0,0,0,0,0,0,0,0,0,0,0,0,0,0,0,0,0,0,0,0,0,0,0,0,0,0,0,0,0,0,0,0,0,0,0,0,0,0,0,0,0,0,0,0,0,0,0,0,0,0,0,0,0,0,0,0,0,0,0,0,0,0,0,0,0,0,0,0,0,0,0,0,0,0,0,0,0,0,0,0,0,0,0,0,0,0,0,0,0,0,0,0,0,0,0,0,0,0,0,0,0,0,0,0,0,0,0,0],"id":3,"left_children":[1,3,5,7,9,11,13,15,17,19,21,23,25,27,29,31,33,35,37,39,41,43,45,47,49,51,53,55,57,59,61,63,65,67,69,71,73,75,77,79,81,83,85,87,89,91,93,95,97,99,101,103,105,107,109,111,113,115,117,119,121,123,125,-1,-1,-1,-1,-1,-1,-1,-1,-1,-1,-1,-1,-1,-1,-1,-1,-1,-1,-1,-1,-1,-1,-1,-1,-1,-1,-1,-1,-1,-1,-1,-1,-1,-1,-1,-1,-1,-1,-1,-1,-1,-1,-1,-1,-1,-1,-1,-1,-1,-1,-1,-1,-1,-1,-1,-1,-1,-1,-1,-1,-1,-1,-1,-1],"loss_changes":[1.4051905E6,2.6408375E5,2.8611547E5,7.508106E4,6.7717E4,4.3596523E4,2.1415025E5,5.3913125E4,6.5652375E4,4.6625875E4,3.1531062E4,1.0188523E4,3.417022E4,4.0943402E4,1.8672519E5,2.5081812E4,4.0148188E4,2.4447672E4,2.8496904E3,7.2185156E3,3.7714125E4,1.2263741E4,1.3830359E4,7.7680015E3,2.0749523E4,2.8139264E4,1.0445324E5,7.7648223E3,3.3439543E4,1.6890219E5,2.894996E5,1.5157219E4,6.572422E3,2.2935562E4,3.5748734E4,1.7626406E4,5.451021E3,4.173954E3,1.3709524E4,6.5751562E3,5.056922E3,2.7138781E4,1.58338125E4,1.4433037E4,1.6572873E4,1.3093219E4,1.2386719E4,7.9344453E3,7.1701016E3,1.3408492E4,1.2570272E4,3.857245E4,9.452376E3,1.8514227E4,2.377721E4,7.4848086E3,8.103968E3,4.5226125E4,1.5423326E4,1.6215023E5,4.1646688E4,9.764608E4,6.58777E4,0E0,0E0,0E0,0E0,0E0,0E0,0E0,0E0,0E0,0E0,0E0,0E0,0E0,0E0,0E0,0E0,0E0,0E0,0E0,0E0,0E0,0E0,0E0,0E0,0E0,0E0,0E0,0E0,0E0,0E0,0E0,0E0,0E0,0E0,0E0,0E0,0E0,0E0,0E0,0E0,0E0,0E0,0E0,0E0,0E0,0E0,0E0,0E0,0E0,0E0,0E0,0E0,0E0,0E0,0E0,0E0,0E0,0E0,0E0,0E0,0E0,0E0,0E0,0E0],"parents":[2147483647,0,0,1,1,2,2,3,3,4,4,5,5,6,6,7,7,8,8,9,9,10,10,11,11,12,12,13,13,14,14,15,15,16,16,17,17,18,18,19,19,20,20,21,21,22,22,23,23,24,24,25,25,26,26,27,27,28,28,29,29,30,30,31,31,32,32,33,33,34,34,35,35,36,36,37,37,38,38,39,39,40,40,41,41,42,42,43,43,44,44,45,45,46,46,47,47,48,48,49,49,50,50,51,51,52,52,53,53,54,54,55,55,56,56,57,57,58,58,59,59,60,60,61,61,62,62],"right_children":[2,4,6,8,10,12,14,16,18,20,22,24,26,28,30,32,34,36,38,40,42,44,46,48,50,52,54,56,58,60,62,64,66,68,70,72,74,76,78,80,82,84,86,88,90,92,94,96,98,100,102,104,106,108,110,112,114,116,118,120,122,124,126,-1,-1,-1,-1,-1,-1,-1,-1,-1,-1,-1,-1,-1,-1,-1,-1,-1,-1,-1,-1,-1,-1,-1,-1,-1,-1,-1,-1,-1,-1,-1,-1,-1,-1,-1,-1,-1,-1,-1,-1,-1,-1,-1,-1,-1,-1,-1,-1,-1,-1,-1,-1,-1,-1,-1,-1,-1,-1,-1,-1,-1,-1,-1,-1],"split_conditions":[3.12015E5,2.2153E4,1E0,3E0,3E0,1E0,1E0,5E0,9E0,1E0,5E0,1E0,3E0,2E0,3E0,3E0,4E0,5E0,5E0,2.42926E5,2.42926E5,5E0,1.78185E5,4.76548E5,3E0,3E0,5E0,1E0,3E0,3E0,5E0,2E0,5E0,3E0,7E0,6E0,4E0,2E0,3E0,5.3886E4,1E0,2.25866E5,1E0,4E0,1.78185E5,3.7938E4,2E0,1E0,7.8589E5,1.477575E6,2E0,1E0,2E0,1.703936E6,1E1,2E0,4.99311E5,1E0,4E0,1E0,1.723626E6,5E0,4E0,-2.59958E-1,-1.2951379E-1,-7.7493066E-1,2.5458795E-1,-3.769575E-1,-8.266083E-1,-7.099916E-1,5.275479E-1,-2.0611508E0,-2.0078515E-1,1.0537423E0,-7.6420695E-1,-7.744774E-1,-2.1203001E-1,8.5278624E-1,-1.0103649E0,-2.5832215E-1,-1.5786521E-1,-1.9093531E-1,-3.0886373E-1,-9.039879E-2,2.9075623E-2,-7.946014E-2,-1.8316956E-1,-1.921917E-1,-2.056658E0,1.3856937E-1,3.0198474E0,-1.5697315E0,-3.6671248E-1,-1.0234969E0,-5.4318357E-1,3.4759462E-1,-5.78985E-2,-1.9353102E-1,-3.544643E-2,-2.1216412E-1,-8.244046E-2,-1.3005443E-1,1.391001E-2,1.479698E-2,-7.3001966E-2,-7.194627E-2,3.0881891E-2,-3.6579812E-1,9.726289E-2,2.8925247E0,-1.8832892E-1,1.4401966E-1,1.103615E-2,1.2606572E-1,1.54605005E-2,8.75532E-3,-8.085057E-2,2.6135895E-2,-1.04418635E-1,9.666216E-2,1.9136967E-2,1.2203332E-1,3.4122173E-2,-1.7733632E-2,-3.320891E-1,2.6423361E0,8.903018E-1],"split_indices":[8,8,7,2,2,0,0,3,3,7,3,1,2,7,2,6,1,0,7,8,8,0,8,8,1,1,0,1,1,1,0,4,0,6,3,7,7,1,0,8,5,8,1,1,8,8,1,5,8,8,4,1,3,8,3,2,8,1,1,1,8,3,7,0,0,0,0,0,0,0,0,0,0,0,0,0,0,0,0,0,0,0,0,0,0,0,0,0,0,0,0,0,0,0,0,0,0,0,0,0,0,0,0,0,0,0,0,0,0,0,0,0,0,0,0,0,0,0,0,0,0,0,0,0,0,0,0],"split_type":[0,0,0,0,0,0,0,0,0,0,0,0,0,0,0,0,0,0,0,0,0,0,0,0,0,0,0,0,0,0,0,0,0,0,0,0,0,0,0,0,0,0,0,0,0,0,0,0,0,0,0,0,0,0,0,0,0,0,0,0,0,0,0,0,0,0,0,0,0,0,0,0,0,0,0,0,0,0,0,0,0,0,0,0,0,0,0,0,0,0,0,0,0,0,0,0,0,0,0,0,0,0,0,0,0,0,0,0,0,0,0,0,0,0,0,0,0,0,0,0,0,0,0,0,0,0,0],"sum_hessian":[3.195454E6,5.26035E5,2.669419E6,8.3283E4,4.42752E5,4.14201E5,2.255218E6,8.1879E4,1.404E3,4.34101E5,8.651E3,8.2781E4,3.3142E5,4.51065E5,1.804153E6,3.6651E4,4.5228E4,7.08E2,6.96E2,6.7939E4,3.66162E5,3.872E3,4.779E3,1.9042E4,6.3739E4,3.24108E5,7.312E3,8.4328E4,3.66737E5,1.763284E6,4.0869E4,3.566E4,9.91E2,4.4034E4,1.194E3,6.44E2,6.4E1,5.38E2,1.58E2,5.3366E4,1.4573E4,2.84256E5,8.1906E4,3.769E3,1.03E2,2.586E3,2.193E3,1.929E3,1.7113E4,3.948E4,2.4259E4,2.29594E5,9.4514E4,7.154E3,1.58E2,1.9225E4,6.5103E4,2.58635E5,1.08102E5,1.24421E6,5.19074E5,3.9991E4,8.78E2,1.8271E4,1.7389E4,9.25E2,6.6E1,4.2869E4,1.165E3,3.17E2,8.77E2,5.88E2,5.6E1,3.2E1,3.2E1,2.33E2,3.05E2,8.8E1,7E1,7.6E3,4.5766E4,7.078E3,7.495E3,2.63767E5,2.0489E4,1.9245E4,6.2661E4,3.728E3,4.1E1,7.7E1,2.6E1,9.3E1,2.493E3,9.53E2,1.24E3,9.53E2,9.76E2,3.645E3,1.3468E4,2.8403E4,1.1077E4,1.216E4,1.2099E4,7.3687E4,1.55907E5,9.996E3,8.4518E4,6.15E3,1.004E3,1.27E2,3.1E1,1.2934E4,6.291E3,7.484E3,5.7619E4,8.2896E4,1.75739E5,9.8135E4,9.967E3,3.95533E5,8.48677E5,4.57999E5,6.1075E4,1.7836E4,2.2155E4,3.76E2,5.02E2],"tree_param":{"num_deleted":"0","num_feature":"9","num_nodes":"127","size_leaf_vector":"1"}},{"base_weights":[-9.997098E-6,-1.2185687E0,2.9583707E-1,-2.9707277E0,-9.940612E-1,-3.8891938E-1,4.216658E-1,-2.8411605E0,-1.0049643E1,-9.3592876E-1,-3.8954058E0,-9.790142E-1,-2.4103853E-1,-1.3650534E-1,5.613525E-1,-1.8591379E0,-3.6638787E0,-1.6914074E1,-3.1586587E0,-1.632912E0,-8.072523E-1,-4.2028646E0,1.009617E1,-3.9174852E-1,-1.1540829E0,-1.9856466E-1,-2.1156209E0,-5.677376E-1,2.5819136E-2,3.7894803E-1,9.975993E-1,-1.7133927E0,-7.0846786E0,-3.006613E0,-7.1897726E0,-1.8706427E1,9.9234205E-1,-2.4140582E0,-2.4885317E1,-1.2040147E0,-1.8529E0,-1.3728632E0,-6.683569E-1,-2.391972E0,-6.2336364E0,4.191907E0,2.506169E1,2.7480867E0,-6.2215877E-1,-1.5184696E0,-5.6084454E-1,-3.6162087E-1,1.9658971E-1,-2.6303844E0,2.0423561E1,8.838788E-1,-9.528921E-1,9.1386616E-2,-1.1311595E0,8.445426E-1,1.6302067E-1,1.0942925E0,3.0306283E-1,-1.06727175E-1,-2.3207639E-1,-2.7296552E-1,-9.3731755E-1,-3.1624493E-1,2.019438E-1,-3.6086208E-1,-8.1779623E-1,-1.418565E0,-2.4786727E0,-1.4849322E0,5.792145E-1,-5.252247E-1,-1.0802406E-1,-2.8383298E0,2.2537148E0,-2.1171808E-1,-9.807845E-2,-2.637523E-1,-1.679965E-1,-6.763383E-2,-1.5881453E-1,-8.501841E-2,-2.2075037E-2,-2.2396246E-1,-1.8673519E0,-3.7562263E-1,-7.601225E-1,1.3653774E0,-2.3136449E-1,-3.787476E-1,3.2209363E0,2.1852115E-1,1.0194143E0,-4.5519862E-1,-5.3240698E-2,-1.8633063E-1,-8.0318E-2,-1.09593414E-1,4.3007E-2,2.1775365E-2,-6.34199E-2,2.5752097E-2,-1.2829323E-1,-7.4265875E-2,-4.206298E-1,2.58374E0,-1.700843E-1,1.00050114E-1,-4.5718047E-1,-6.153052E-2,-2.0030944E-1,3.1198157E-2,-1.9874228E-2,-9.9474624E-2,-4.9774757E-1,9.075555E-2,-1.94678E-1,-1.9905164E-3,6.1184604E-2,1.1340952E-1,-6.3130334E-2,4.3588962E-2,-2.284183E-1],"categories":[],"categories_nodes":[],"categories_segments":[],"categories_sizes":[],"default_left":[0,0,0,0,0,0,0,0,0,0,0,0,0,0,0,0,0,0,0,0,0,0,0,0,0,0,0,0,0,0,0,0,0,0,0,0,0,0,0,0,0,0,0,0,0,0,0,0,0,0,0,0,0,0,0,0,0,0,0,0,0,0,0,0,0,0,0,0,0,0,0,0,0,0,0,0,0,0,0,0,0,0,0,0,0,0,0,0,0,0,0,0,0,0,0,0,0,0,0,0,0,0,0,0,0,0,0,0,0,0,0,0,0,0,0,0,0,0,0,0,0,0,0,0,0,0,0],"id":4,"left_children":[1,3,5,7,9,11,13,15,17,19,21,23,25,27,29,31,33,35,37,39,41,43,45,47,49,51,53,55,57,59,61,63,65,67,69,71,73,75,77,79,81,83,85,87,89,91,93,95,97,99,101,103,105,107,109,111,113,115,117,119,121,123,125,-1,-1,-1,-1,-1,-1,-1,-1,-1,-1,-1,-1,-1,-1,-1,-1,-1,-1,-1,-1,-1,-1,-1,-1,-1,-1,-1,-1,-1,-1,-1,-1,-1,-1,-1,-1,-1,-1,-1,-1,-1,-1,-1,-1,-1,-1,-1,-1,-1,-1,-1,-1,-1,-1,-1,-1,-1,-1,-1,-1,-1,-1,-1,-1],"loss_changes":[1.1519845E6,2.4555975E5,2.2154058E5,6.5001438E4,9.3325375E4,3.482969E4,1.6935466E5,5.6247625E4,6.0210203E4,4.865128E4,4.6799062E4,8.222531E3,2.541086E4,3.0433996E4,1.3824256E5,2.416325E4,8.777731E4,2.0494906E4,1.0245106E4,7.9746094E3,3.5975094E4,3.9099094E4,2.0571268E4,1.3290768E4,1.3317922E4,2.0108383E4,8.209393E4,6.6478E4,2.3962361E4,1.2316214E5,3.439947E4,1.2117102E4,8.555539E3,2.5019188E4,2.103375E4,1.559125E4,4.572185E3,2.330058E3,4.1232197E3,5.841172E3,7.5777188E3,1.3536797E4,2.9922328E4,1.3908242E4,1.6955875E4,1.0434328E4,1.373148E4,5.241871E3,6.0338384E3,9.412945E3,1.2432197E4,3.488937E4,8.218509E3,2.0565285E4,1.8968867E4,1.5868297E4,3.3314023E4,1.9132129E4,8.883799E3,6.827159E4,6.871367E4,3.0882812E4,2.1513496E4,0E0,0E0,0E0,0E0,0E0,0E0,0E0,0E0,0E0,0E0,0E0,0E0,0E0,0E0,0E0,0E0,0E0,0E0,0E0,0E0,0E0,0E0,0E0,0E0,0E0,0E0,0E0,0E0,0E0,0E0,0E0,0E0,0E0,0E0,0E0,0E0,0E0,0E0,0E0,0E0,0E0,0E0,0E0,0E0,0E0,0E0,0E0,0E0,0E0,0E0,0E0,0E0,0E0,0E0,0E0,0E0,0E0,0E0,0E0,0E0,0E0,0E0,0E0,0E0],"parents":[2147483647,0,0,1,1,2,2,3,3,4,4,5,5,6,6,7,7,8,8,9,9,10,10,11,11,12,12,13,13,14,14,15,15,16,16,17,17,18,18,19,19,20,20,21,21,22,22,23,23,24,24,25,25,26,26,27,27,28,28,29,29,30,30,31,31,32,32,33,33,34,34,35,35,36,36,37,37,38,38,39,39,40,40,41,41,42,42,43,43,44,44,45,45,46,46,47,47,48,48,49,49,50,50,51,51,52,52,53,53,54,54,55,55,56,56,57,57,58,58,59,59,60,60,61,61,62,62],"right_children":[2,4,6,8,10,12,14,16,18,20,22,24,26,28,30,32,34,36,38,40,42,44,46,48,50,52,54,56,58,60,62,64,66,68,70,72,74,76,78,80,82,84,86,88,90,92,94,96,98,100,102,104,106,108,110,112,114,116,118,120,122,124,126,-1,-1,-1,-1,-1,-1,-1,-1,-1,-1,-1,-1,-1,-1,-1,-1,-1,-1,-1,-1,-1,-1,-1,-1,-1,-1,-1,-1,-1,-1,-1,-1,-1,-1,-1,-1,-1,-1,-1,-1,-1,-1,-1,-1,-1,-1,-1,-1,-1,-1,-1,-1,-1,-1,-1,-1,-1,-1,-1,-1,-1,-1,-1,-1],"split_conditions":[3.71572E5,1.4228E4,1E0,3E0,3E0,1E0,1E0,5E0,9E0,1E0,5E0,1E0,3E0,8.00072E5,3E0,3E0,7.51E3,5E0,7.51E3,1E0,1E0,6E0,2.02026E5,4.76548E5,3E0,3E0,5E0,4.61997E5,1.860744E6,1E0,1.723626E6,1E0,2E0,4E0,6E0,2E0,2E0,1E0,6E0,1E0,7.6071E4,1E0,3E0,4E0,1.45488E5,2E0,1E0,4.68927E5,5.06326E5,1.427851E6,2E0,1E0,1.860744E6,5E0,1E1,3E0,7.2318E5,4E0,4E0,3E0,4E0,3E0,1.912672E6,-1.06727175E-1,-2.3207639E-1,-2.7296552E-1,-9.3731755E-1,-3.1624493E-1,2.019438E-1,-3.6086208E-1,-8.1779623E-1,-1.418565E0,-2.4786727E0,-1.4849322E0,5.792145E-1,-5.252247E-1,-1.0802406E-1,-2.8383298E0,2.2537148E0,-2.1171808E-1,-9.807845E-2,-2.637523E-1,-1.679965E-1,-6.763383E-2,-1.5881453E-1,-8.501841E-2,-2.2075037E-2,-2.2396246E-1,-1.8673519E0,-3.7562263E-1,-7.601225E-1,1.3653774E0,-2.3136449E-1,-3.787476E-1,3.2209363E0,2.1852115E-1,1.0194143E0,-4.5519862E-1,-5.3240698E-2,-1.8633063E-1,-8.0318E-2,-1.09593414E-1,4.3007E-2,2.1775365E-2,-6.34199E-2,2.5752097E-2,-1.2829323E-1,-7.4265875E-2,-4.206298E-1,2.58374E0,-1.700843E-1,1.00050114E-1,-4.5718047E-1,-6.153052E-2,-2.0030944E-1,3.1198157E-2,-1.9874228E-2,-9.9474624E-2,-4.9774757E-1,9.075555E-2,-1.94678E-1,-1.9905164E-3,6.1184604E-2,1.1340952E-1,-6.3130334E-2,4.3588962E-2,-2.284183E-1],"split_indices":[8,8,7,2,2,0,0,3,3,7,0,1,2,8,1,6,8,0,8,2,0,3,8,8,1,1,0,8,8,1,8,5,3,1,3,4,7,6,7,0,8,1,1,1,8,5,1,8,8,8,6,1,8,3,3,2,8,7,1,2,0,2,8,0,0,0,0,0,0,0,0,0,0,0,0,0,0,0,0,0,0,0,0,0,0,0,0,0,0,0,0,0,0,0,0,0,0,0,0,0,0,0,0,0,0,0,0,0,0,0,0,0,0,0,0,0,0,0,0,0,0,0,0,0,0,0,0],"split_type":[0,0,0,0,0,0,0,0,0,0,0,0,0,0,0,0,0,0,0,0,0,0,0,0,0,0,0,0,0,0,0,0,0,0,0,0,0,0,0,0,0,0,0,0,0,0,0,0,0,0,0,0,0,0,0,0,0,0,0,0,0,0,0,0,0,0,0,0,0,0,0,0,0,0,0,0,0,0,0,0,0,0,0,0,0,0,0,0,0,0,0,0,0,0,0,0,0,0,0,0,0,0,0,0,0,0,0,0,0,0,0,0,0,0,0,0,0,0,0,0,0,0,0,0,0,0,0],"sum_hessian":[3.195454E6,6.24248E5,2.571206E6,7.09E4,5.53348E5,3.99133E5,2.172073E6,6.9627E4,1.273E3,5.4248E5,1.0868E4,7.998E4,3.19153E5,4.34773E5,1.7373E6,3.1742E4,3.7885E4,6.37E2,6.36E2,8.4542E4,4.57938E5,1.0635E4,2.33E2,1.8368E4,6.1612E4,3.12083E5,7.07E3,1.189E5,3.15873E5,1.225072E6,5.12228E5,3.0882E4,8.6E2,3.1934E4,5.951E3,5.79E2,5.8E1,6.16E2,2E1,2.8664E4,5.5878E4,9.0282E4,3.67656E5,5.623E3,5.012E3,1.68E2,6.5E1,1.255E3,1.7113E4,3.8167E4,2.3445E4,2.20922E5,9.1161E4,6.913E3,1.57E2,2.4932E4,9.3968E4,2.98933E5,1.694E4,3.8814E5,8.36932E5,4.4963E5,6.2598E4,1.4965E4,1.5917E4,2.97E2,5.63E2,3.0974E4,9.6E2,1.288E3,4.663E3,3.34E2,2.45E2,1.3E1,4.5E1,1.96E2,4.2E2,1.9E1,1E0,5.629E3,2.3035E4,1.0089E4,4.5789E4,2.1317E4,6.8965E4,2.61449E5,1.06207E5,5.572E3,5.1E1,1.784E3,3.228E3,6.8E1,1E2,1.3E1,5.2E1,1.168E3,8.7E1,3.81E2,1.6732E4,2.5751E4,1.2416E4,1.5224E4,8.221E3,7.0683E4,1.50239E5,8.7556E4,3.605E3,3.146E3,3.767E3,1.26E2,3.1E1,2.4411E4,5.21E2,7.1111E4,2.2857E4,1.69816E5,1.29117E5,1.6361E4,5.79E2,3.79572E5,8.568E3,5.94596E5,2.42336E5,4.39493E5,1.0137E4,5.9542E4,3.056E3],"tree_param":{"num_deleted":"0","num_feature":"9","num_nodes":"127","size_leaf_vector":"1"}},{"base_weights":[-1.1746267E-5,-1.2183871E0,2.4008135E-1,-2.5467393E0,-9.685149E-1,-3.7937146E-1,3.5385227E-1,-2.4460936E0,-8.410317E0,-9.243744E-1,-3.1830893E0,-5.345822E-1,1.29596E-1,3.9441174E-1,-1.3939792E0,-1.7169352E0,-3.0369241E0,-1.389964E1,-2.8144212E0,-3.734902E-1,-1.0910001E0,-1.439347E0,-4.5952926E0,-1.0197399E0,-3.4568477E-1,-1.2658237E-1,5.9792274E-1,2.3184219E-1,7.8389937E-1,-1.6764828E0,1.4763662E1,-1.6052889E0,-5.72873E0,-3.1640184E0,1.6489632E0,-1.5396843E1,1.171059E0,-4.8094935E0,-1.1082337E0,-8.1710416E-1,3.871281E-2,-1.389596E0,-5.989709E-1,-1.368367E1,-1.2398226E0,-6.26424E0,-3.2099807E0,-9.357697E-1,-4.8997927E0,-2.892083E-1,-1.3829916E0,-3.889508E-1,5.0946665E-1,3.657087E-2,1.1891079E0,6.886116E-1,1.8291786E-2,9.316349E-1,2.7469257E-1,-1.1988177E-1,-2.9300327E0,2.040522E1,3.9173577E0,-2.1767853E-1,-1.0047146E-1,-3.665311E-1,-8.864412E-1,-3.0554694E-1,-7.1522963E-1,-6.5197444E-1,4.6056828E-1,-1.6859741E0,-1.0107877E-3,1.1881648E0,-6.2739915E-1,-7.9858637E-1,3.825638E-1,3.2159165E-1,-6.5068245E-1,4.505097E-3,-1.0500898E-1,-3.3684127E-2,7.448202E-2,-1.1911712E-1,-2.0942342E-1,-1.5296538E-1,-4.2865127E-2,-2.8538997E0,-7.896187E-1,1.471654E-1,-2.2495916E-1,-4.7390196E-1,-9.96947E-1,1.393693E-1,-4.4544107E-1,-3.7472766E-2,-1.317191E-1,-7.960206E-2,-6.069357E-1,-4.723951E-2,3.3487927E-2,-3.0782333E-1,-8.277383E-2,-1.0236583E-1,-2.2868823E-2,7.240416E-2,-8.643149E-2,-7.898681E-1,7.699682E-3,1.390417E-1,-3.7005108E-2,8.7743625E-2,4.3998724E-3,-5.502499E-2,1.5960755E-2,6.752532E-2,1.1857712E-1,3.497371E-2,-1.5904114E-1,4.584768E-3,-1.0364598E0,-6.032962E-1,-1.9776236E-1,8.8715965E-1,2.581196E0,-6.85612E-1,9.0484965E-1],"categories":[],"categories_nodes":[],"categories_segments":[],"categories_sizes":[],"default_left":[0,0,0,0,0,0,0,0,0,0,0,0,0,0,0,0,0,0,0,0,0,0,0,0,0,0,0,0,0,0,0,0,0,0,0,0,0,0,0,0,0,0,0,0,0,0,0,0,0,0,0,0,0,0,0,0,0,0,0,0,0,0,0,0,0,0,0,0,0,0,0,0,0,0,0,0,0,0,0,0,0,0,0,0,0,0,0,0,0,0,0,0,0,0,0,0,0,0,0,0,0,0,0,0,0,0,0,0,0,0,0,0,0,0,0,0,0,0,0,0,0,0,0,0,0,0,0],"id":5,"left_children":[1,3,5,7,9,11,13,15,17,19,21,23,25,27,29,31,33,35,37,39,41,43,45,47,49,51,53,55,57,59,61,63,65,67,69,71,73,75,77,79,81,83,85,87,89,91,93,95,97,99,101,103,105,107,109,111,113,115,117,119,121,123,125,-1,-1,-1,-1,-1,-1,-1,-1,-1,-1,-1,-1,-1,-1,-1,-1,-1,-1,-1,-1,-1,-1,-1,-1,-1,-1,-1,-1,-1,-1,-1,-1,-1,-1,-1,-1,-1,-1,-1,-1,-1,-1,-1,-1,-1,-1,-1,-1,-1,-1,-1,-1,-1,-1,-1,-1,-1,-1,-1,-1,-1,-1,-1,-1],"loss_changes":[9.347461E5,1.745985E5,1.8812942E5,4.9129E4,4.327722E4,3.2720875E4,1.5987547E5,3.526947E4,4.311922E4,3.9846406E4,2.1299094E4,2.9088523E4,1.1613074E4,1.395591E5,2.334899E5,1.6407312E4,2.6941344E4,1.6015828E4,2.3672354E3,1.8434416E4,4.8965594E4,9.444939E3,1.10313125E4,2.8976117E4,1.3383508E4,1.0441829E4,1.1358294E4,1.5168177E5,4.882678E4,9.808841E4,5.3706125E4,1.2237586E4,6.3859727E3,1.9041938E4,2.889236E4,1.4518281E4,5.257702E3,8.835059E3,8.821732E3,9.753477E3,1.3857841E4,2.8997906E4,1.9952395E4,5.1050986E3,1.0440435E4,1.2199109E4,1.4981682E4,1.8631266E4,9.037664E3,2.4770182E4,1.1100891E4,4.505751E3,5.3871235E3,5.6327188E3,5.2327754E3,6.0299203E4,8.5134336E4,3.2778625E4,2.0430398E4,3.8074785E4,8.22773E4,3.5814703E4,1.675666E4,0E0,0E0,0E0,0E0,0E0,0E0,0E0,0E0,0E0,0E0,0E0,0E0,0E0,0E0,0E0,0E0,0E0,0E0,0E0,0E0,0E0,0E0,0E0,0E0,0E0,0E0,0E0,0E0,0E0,0E0,0E0,0E0,0E0,0E0,0E0,0E0,0E0,0E0,0E0,0E0,0E0,0E0,0E0,0E0,0E0,0E0,0E0,0E0,0E0,0E0,0E0,0E0,0E0,0E0,0E0,0E0,0E0,0E0,0E0,0E0,0E0,0E0,0E0,0E0],"parents":[2147483647,0,0,1,1,2,2,3,3,4,4,5,5,6,6,7,7,8,8,9,9,10,10,11,11,12,12,13,13,14,14,15,15,16,16,17,17,18,18,19,19,20,20,21,21,22,22,23,23,24,24,25,25,26,26,27,27,28,28,29,29,30,30,31,31,32,32,33,33,34,34,35,35,36,36,37,37,38,38,39,39,40,40,41,41,42,42,43,43,44,44,45,45,46,46,47,47,48,48,49,49,50,50,51,51,52,52,53,53,54,54,55,55,56,56,57,57,58,58,59,59,60,60,61,61,62,62],"right_children":[2,4,6,8,10,12,14,16,18,20,22,24,26,28,30,32,34,36,38,40,42,44,46,48,50,52,54,56,58,60,62,64,66,68,70,72,74,76,78,80,82,84,86,88,90,92,94,96,98,100,102,104,106,108,110,112,114,116,118,120,122,124,126,-1,-1,-1,-1,-1,-1,-1,-1,-1,-1,-1,-1,-1,-1,-1,-1,-1,-1,-1,-1,-1,-1,-1,-1,-1,-1,-1,-1,-1,-1,-1,-1,-1,-1,-1,-1,-1,-1,-1,-1,-1,-1,-1,-1,-1,-1,-1,-1,-1,-1,-1,-1,-1,-1,-1,-1,-1,-1,-1,-1,-1,-1,-1,-1],"split_conditions":[3.12015E5,2.2153E4,1E0,3E0,3E0,4E0,3E0,5E0,9E0,1E0,5E0,7.72482E5,2E0,3E0,5E0,3E0,4E0,5E0,3E0,3E0,3E0,3.7938E4,2E0,3E0,1.860744E6,3E0,6E0,1E0,5E0,5E0,5E0,2E0,4E0,3E0,7E0,6E0,2E0,4E0,3E0,8.385E4,2E0,2.42926E5,1E0,2E0,1.06705E5,2.17896E5,9.1683E4,4.99311E5,3E0,1.611551E6,1.875365E6,6.40183E5,5E0,3.19266E5,1.744109E6,5E0,1E0,3E0,1.860744E6,4E0,7.30376E5,3E0,3E0,-2.1767853E-1,-1.0047146E-1,-3.665311E-1,-8.864412E-1,-3.0554694E-1,-7.1522963E-1,-6.5197444E-1,4.6056828E-1,-1.6859741E0,-1.0107877E-3,1.1881648E0,-6.2739915E-1,-7.9858637E-1,3.825638E-1,3.2159165E-1,-6.5068245E-1,4.505097E-3,-1.0500898E-1,-3.3684127E-2,7.448202E-2,-1.1911712E-1,-2.0942342E-1,-1.5296538E-1,-4.2865127E-2,-2.8538997E0,-7.896187E-1,1.471654E-1,-2.2495916E-1,-4.7390196E-1,-9.96947E-1,1.393693E-1,-4.4544107E-1,-3.7472766E-2,-1.317191E-1,-7.960206E-2,-6.069357E-1,-4.723951E-2,3.3487927E-2,-3.0782333E-1,-8.277383E-2,-1.0236583E-1,-2.2868823E-2,7.240416E-2,-8.643149E-2,-7.898681E-1,7.699682E-3,1.390417E-1,-3.7005108E-2,8.7743625E-2,4.3998724E-3,-5.502499E-2,1.5960755E-2,6.752532E-2,1.1857712E-1,3.497371E-2,-1.5904114E-1,4.584768E-3,-1.0364598E0,-6.032962E-1,-1.9776236E-1,8.8715965E-1,2.581196E0,-6.85612E-1,9.0484965E-1],"split_indices":[8,8,7,2,2,0,2,3,3,1,3,8,6,1,0,6,1,0,7,7,1,8,1,2,8,1,3,1,7,3,7,4,7,6,3,7,5,0,0,8,6,8,7,7,8,8,8,8,3,8,8,8,0,8,8,7,0,7,8,1,8,3,3,0,0,0,0,0,0,0,0,0,0,0,0,0,0,0,0,0,0,0,0,0,0,0,0,0,0,0,0,0,0,0,0,0,0,0,0,0,0,0,0,0,0,0,0,0,0,0,0,0,0,0,0,0,0,0,0,0,0,0,0,0,0,0,0],"split_type":[0,0,0,0,0,0,0,0,0,0,0,0,0,0,0,0,0,0,0,0,0,0,0,0,0,0,0,0,0,0,0,0,0,0,0,0,0,0,0,0,0,0,0,0,0,0,0,0,0,0,0,0,0,0,0,0,0,0,0,0,0,0,0,0,0,0,0,0,0,0,0,0,0,0,0,0,0,0,0,0,0,0,0,0,0,0,0,0,0,0,0,0,0,0,0,0,0,0,0,0,0,0,0,0,0,0,0,0,0,0,0,0,0,0,0,0,0,0,0,0,0,0,0,0,0,0,0],"sum_hessian":[3.195454E6,5.26035E5,2.669419E6,8.3283E4,4.42752E5,4.14201E5,2.255218E6,8.1879E4,1.404E3,4.34101E5,8.651E3,3.17407E5,9.6794E4,2.204072E6,5.1146E4,3.6651E4,4.5228E4,7.08E2,6.96E2,1.00811E5,3.3329E5,3.872E3,4.779E3,8.8949E4,2.28458E5,6.2569E4,3.4225E4,1.555019E6,6.49053E5,5.0268E4,8.78E2,3.566E4,9.91E2,4.4034E4,1.194E3,6.44E2,6.4E1,3.2E2,3.76E2,4.8555E4,5.2256E4,2.07415E5,1.25875E5,6.1E1,3.811E3,2.166E3,2.613E3,8.7066E4,1.883E3,2.16663E5,1.1795E4,4.4297E4,1.8272E4,1.7556E4,1.6669E4,4.95397E5,1.059622E6,5.03091E5,1.45962E5,2.2424E4,2.7844E4,5.77E2,3.01E2,1.8271E4,1.7389E4,5.99E2,3.92E2,4.2869E4,1.165E3,3.17E2,8.77E2,5.88E2,5.6E1,2.6E1,3.8E1,2.34E2,8.6E1,2.09E2,1.67E2,1.033E4,3.8225E4,3.4113E4,1.8143E4,1.61843E5,4.5572E4,1.9471E4,1.06404E5,1.6E1,4.5E1,1.034E3,2.777E3,1.536E3,6.3E2,5.56E2,2.057E3,3.5237E4,5.1829E4,4.18E2,1.465E3,1.67498E5,4.9165E4,2.909E3,8.886E3,8.929E3,3.5368E4,1.5804E4,2.468E3,8.8E1,1.7468E4,1.4763E4,1.906E3,3.83159E5,1.12238E5,2.10945E5,8.48677E5,2.50441E5,2.5265E5,1.40317E5,5.645E3,2.2068E4,3.56E2,6.538E3,2.1306E4,1.85E2,3.92E2,9.7E1,2.04E2],"tree_param":{"num_deleted":"0","num_feature":"9","num_nodes":"127","size_leaf_vector":"1"}},{"base_weights":[-1.4287287E-5,-9.9747735E-1,2.421542E-1,-2.4197772E0,-8.1523526E-1,-2.3941036E-1,3.6269522E-1,-2.313651E0,-8.217993E0,-7.678304E-1,-3.181177E0,-8.273141E-1,-1.3125907E-1,3.9849353E-1,-1.1841446E0,-1.5015172E0,-2.994041E0,-1.4917288E1,-3.4255946E0,-1.3541253E0,-6.595891E-1,-3.4524572E0,9.162916E0,-1.128228E0,-5.207438E-1,3.750568E-1,-2.4764019E-1,-1.464277E-1,4.9865562E-1,-1.517959E0,1.3827126E1,-1.3815911E0,-5.8013725E0,-2.4029658E0,-6.1649075E0,-1.6545076E1,3.953145E-1,-2.8029442E0,-2.3732443E1,-1.5133985E0,-8.2840604E-1,-1.1640557E0,-5.3570896E-1,-1.964663E0,-5.1208997E0,3.9525235E0,2.2365849E1,-2.0336263E-1,-1.4005024E0,-8.207269E-1,1.9683602E-1,-1.1778469E-1,6.055068E-1,-4.029494E-1,1.2338111E-1,2.6921377E-1,-2.7348503E-1,6.300306E-1,-3.3415034E-2,-9.4062515E-2,-2.6680233E0,2.0703665E1,6.517158E0,-2.636213E-1,-1.0846966E-1,-6.538213E-1,6.8150723E-1,-2.264487E-1,-6.697841E-1,-2.940061E-1,-7.0548433E-1,-1.2250946E0,-2.143898E0,5.5973953E-1,-1.4124434E0,-4.0642157E-1,1.1698612E-1,-1.5419488E-1,-2.8578002E0,-1.1489182E-1,-1.7008951E-1,-7.190195E-2,-5.5938977E-1,-3.5635866E-2,-1.3510789E-1,-4.857668E-2,-1.7416568E-1,-1.8283404E-1,-1.6536993E0,-6.0416037E-1,-2.2534649E-1,1.2440559E0,-1.8853669E-1,2.4954886E0,-4.0322223E0,7.298036E-2,-1.0515121E-1,-6.635707E-2,-1.7670785E-1,-4.7648143E-2,-1.5393329E-1,6.774115E-2,-1.441984E-1,-1.5822957E-1,2.3393366E-2,2.0109199E-1,4.8228275E-2,7.720407E-3,-6.2830776E-2,2.2580434E-2,-8.870597E-2,7.160029E-2,4.4015697E-3,-5.4618865E-2,1.6786741E-2,1.1402618E-1,5.1030006E-2,-6.566836E-2,5.956122E-2,7.784132E-3,-1.0677232E0,-5.513707E-1,-1.9216539E-1,5.823621E-2,2.3928945E0,-3.2230776E-2,1.2050265E0],"categories":[],"categories_nodes":[],"categories_segments":[],"categories_sizes":[],"default_left":[0,0,0,0,0,0,0,0,0,0,0,0,0,0,0,0,0,0,0,0,0,0,0,0,0,0,0,0,0,0,0,0,0,0,0,0,0,0,0,0,0,0,0,0,0,0,0,0,0,0,0,0,0,0,0,0,0,0,0,0,0,0,0,0,0,0,0,0,0,0,0,0,0,0,0,0,0,0,0,0,0,0,0,0,0,0,0,0,0,0,0,0,0,0,0,0,0,0,0,0,0,0,0,0,0,0,0,0,0,0,0,0,0,0,0,0,0,0,0,0,0,0,0,0,0,0,0],"id":6,"left_children":[1,3,5,7,9,11,13,15,17,19,21,23,25,27,29,31,33,35,37,39,41,43,45,47,49,51,53,55,57,59,61,63,65,67,69,71,73,75,77,79,81,83,85,87,89,91,93,95,97,99,101,103,105,107,109,111,113,115,117,119,121,123,125,-1,-1,-1,-1,-1,-1,-1,-1,-1,-1,-1,-1,-1,-1,-1,-1,-1,-1,-1,-1,-1,-1,-1,-1,-1,-1,-1,-1,-1,-1,-1,-1,-1,-1,-1,-1,-1,-1,-1,-1,-1,-1,-1,-1,-1,-1,-1,-1,-1,-1,-1,-1,-1,-1,-1,-1,-1,-1,-1,-1,-1,-1,-1,-1],"loss_changes":[7.7187556E5,1.6180519E5,1.4925422E5,4.3609312E4,6.2059594E4,3.272926E4,1.1387509E5,3.846972E4,4.0851547E4,3.4425625E4,3.6428742E4,7.3777617E3,2.5619418E4,1.0970341E5,2.3311161E5,1.6360727E4,7.099191E4,1.32420625E4,9.340666E3,7.0777812E3,2.8617547E4,2.639168E4,1.6009033E4,1.0163559E4,8.528835E3,9.229087E3,2.0370713E4,1.648132E4,1.1868147E5,7.451748E4,5.0735547E4,1.1500758E4,8.0486777E3,1.8978156E4,1.7060953E4,9.824594E3,4.006771E3,3.6275527E3,2.3214902E3,4.4321406E3,1.0244356E4,1.3637492E4,2.2142273E4,1.1142055E4,1.3220984E4,8.39778E3,1.1718152E4,7.2672026E3,8.422383E3,6.9109766E3,9.20066E3,1.3336705E4,9.587865E3,2.6965238E4,1.0796135E4,7.351581E3,2.8768041E4,8.318281E4,1.318121E5,3.6992395E4,5.3455125E4,3.3797312E4,1.862288E4,0E0,0E0,0E0,0E0,0E0,0E0,0E0,0E0,0E0,0E0,0E0,0E0,0E0,0E0,0E0,0E0,0E0,0E0,0E0,0E0,0E0,0E0,0E0,0E0,0E0,0E0,0E0,0E0,0E0,0E0,0E0,0E0,0E0,0E0,0E0,0E0,0E0,0E0,0E0,0E0,0E0,0E0,0E0,0E0,0E0,0E0,0E0,0E0,0E0,0E0,0E0,0E0,0E0,0E0,0E0,0E0,0E0,0E0,0E0,0E0,0E0,0E0,0E0,0E0],"parents":[2147483647,0,0,1,1,2,2,3,3,4,4,5,5,6,6,7,7,8,8,9,9,10,10,11,11,12,12,13,13,14,14,15,15,16,16,17,17,18,18,19,19,20,20,21,21,22,22,23,23,24,24,25,25,26,26,27,27,28,28,29,29,30,30,31,31,32,32,33,33,34,34,35,35,36,36,37,37,38,38,39,39,40,40,41,41,42,42,43,43,44,44,45,45,46,46,47,47,48,48,49,49,50,50,51,51,52,52,53,53,54,54,55,55,56,56,57,57,58,58,59,59,60,60,61,61,62,62],"right_children":[2,4,6,8,10,12,14,16,18,20,22,24,26,28,30,32,34,36,38,40,42,44,46,48,50,52,54,56,58,60,62,64,66,68,70,72,74,76,78,80,82,84,86,88,90,92,94,96,98,100,102,104,106,108,110,112,114,116,118,120,122,124,126,-1,-1,-1,-1,-1,-1,-1,-1,-1,-1,-1,-1,-1,-1,-1,-1,-1,-1,-1,-1,-1,-1,-1,-1,-1,-1,-1,-1,-1,-1,-1,-1,-1,-1,-1,-1,-1,-1,-1,-1,-1,-1,-1,-1,-1,-1,-1,-1,-1,-1,-1,-1,-1,-1,-1,-1,-1,-1,-1,-1,-1,-1,-1,-1],"split_conditions":[3.71572E5,1.4228E4,1E0,3E0,3E0,1E0,3E0,5E0,8E0,1E0,5E0,2E0,2E0,1E0,5E0,3E0,7.51E3,5E0,7.51E3,4E0,1E0,6E0,2.02026E5,1E0,3E0,1E0,3E0,2E0,9E0,5E0,4E0,1E0,6E0,3E0,6E0,4E0,5E0,5E0,1E0,1E0,3.63538E5,2E0,5E0,4E0,1E1,2E0,4E0,1E0,1E0,2E0,1.556584E6,6.64702E5,4.99311E5,1E0,4E0,1E0,4E0,2E0,1E1,4E0,7.30376E5,2E0,4E0,-2.636213E-1,-1.0846966E-1,-6.538213E-1,6.8150723E-1,-2.264487E-1,-6.697841E-1,-2.940061E-1,-7.0548433E-1,-1.2250946E0,-2.143898E0,5.5973953E-1,-1.4124434E0,-4.0642157E-1,1.1698612E-1,-1.5419488E-1,-2.8578002E0,-1.1489182E-1,-1.7008951E-1,-7.190195E-2,-5.5938977E-1,-3.5635866E-2,-1.3510789E-1,-4.857668E-2,-1.7416568E-1,-1.8283404E-1,-1.6536993E0,-6.0416037E-1,-2.2534649E-1,1.2440559E0,-1.8853669E-1,2.4954886E0,-4.0322223E0,7.298036E-2,-1.0515121E-1,-6.635707E-2,-1.7670785E-1,-4.7648143E-2,-1.5393329E-1,6.774115E-2,-1.441984E-1,-1.5822957E-1,2.3393366E-2,2.0109199E-1,4.8228275E-2,7.720407E-3,-6.2830776E-2,2.2580434E-2,-8.870597E-2,7.160029E-2,4.4015697E-3,-5.4618865E-2,1.6786741E-2,1.1402618E-1,5.1030006E-2,-6.566836E-2,5.956122E-2,7.784132E-3,-1.0677232E0,-5.513707E-1,-1.9216539E-1,5.823621E-2,2.3928945E0,-3.2230776E-2,1.2050265E0],"split_indices":[8,8,0,2,2,7,2,3,3,7,0,4,7,7,0,6,8,0,8,0,0,3,8,1,1,6,1,0,3,3,7,0,7,6,3,3,7,7,6,2,8,7,0,1,3,5,1,5,2,1,8,8,8,1,1,2,0,7,3,1,8,3,3,0,0,0,0,0,0,0,0,0,0,0,0,0,0,0,0,0,0,0,0,0,0,0,0,0,0,0,0,0,0,0,0,0,0,0,0,0,0,0,0,0,0,0,0,0,0,0,0,0,0,0,0,0,0,0,0,0,0,0,0,0,0,0,0],"split_type":[0,0,0,0,0,0,0,0,0,0,0,0,0,0,0,0,0,0,0,0,0,0,0,0,0,0,0,0,0,0,0,0,0,0,0,0,0,0,0,0,0,0,0,0,0,0,0,0,0,0,0,0,0,0,0,0,0,0,0,0,0,0,0,0,0,0,0,0,0,0,0,0,0,0,0,0,0,0,0,0,0,0,0,0,0,0,0,0,0,0,0,0,0,0,0,0,0,0,0,0,0,0,0,0,0,0,0,0,0,0,0,0,0,0,0,0,0,0,0,0,0,0,0,0,0,0,0],"sum_hessian":[3.195454E6,6.24248E5,2.571206E6,7.09E4,5.53348E5,5.14753E5,2.056453E6,6.9627E4,1.273E3,5.4248E5,1.0868E4,7.998E4,4.34773E5,2.009938E6,4.6515E4,3.1742E4,3.7885E4,5.3E2,7.43E2,8.4542E4,4.57938E5,1.0635E4,2.33E2,4.0361E4,3.9619E4,8.1258E4,3.53515E5,3.12083E5,1.697855E6,4.5504E4,1.011E3,3.0882E4,8.6E2,3.1934E4,5.951E3,4.79E2,5.1E1,7.22E2,2.1E1,6.4883E4,1.9659E4,9.0282E4,3.67656E5,5.623E3,5.012E3,1.68E2,6.5E1,9.18E3,3.1181E4,2.7939E4,1.168E4,2.589E4,5.5368E4,2.492E5,1.04315E5,7.3065E4,2.39018E5,1.361647E6,3.36208E5,2.0332E4,2.5172E4,5.2E2,4.91E2,5.908E3,2.4974E4,8.13E2,4.7E1,3.0938E4,9.96E2,1.288E3,4.663E3,2.57E2,2.22E2,3.8E1,1.3E1,5.48E2,1.74E2,4E0,1.7E1,2.2042E4,4.2841E4,1.9219E4,4.4E2,1.6975E4,7.3307E4,3.53037E5,1.4619E4,5.572E3,5.1E1,3.793E3,1.219E3,6.8E1,1E2,6.3E1,2E0,4.371E3,4.809E3,1.0359E4,2.0822E4,1.8891E4,9.048E3,9.032E3,2.648E3,5.013E3,2.0877E4,4.462E3,5.0906E4,7.9601E4,1.69599E5,9.4715E4,9.6E3,2.4485E4,4.858E4,1.47735E5,9.1283E4,2.58793E5,1.102854E6,1.68877E5,1.67331E5,2.0008E4,3.24E2,5.229E3,1.9943E4,7.2E1,4.48E2,2.2E2,2.71E2],"tree_param":{"num_deleted":"0","num_feature":"9","num_nodes":"127","size_leaf_vector":"1"}},{"base_weights":[-1.8530312E-5,-8.977527E-1,2.1793735E-1,-1.9252567E0,-6.8342155E-1,7.1803704E-2,5.679582E-1,-1.8445379E0,-7.4217057E0,-6.404333E-1,-2.738244E0,4.9216023E-1,-1.2421441E-1,4.3542802E-1,1.007254E0,-1.75217E0,-5.392131E0,-1.2581814E1,-1.8245506E0,-1.178812E0,-5.4077727E-1,-2.9622843E0,8.18422E0,5.36119E-1,-1.4549545E0,-2.7636552E-1,3.7982923E-1,5.384629E-1,-2.5000682E-1,1.2004364E0,-1.9904347E-1,-1.5102576E0,-2.7679195E0,-8.892223E0,-3.1721377E0,-1.3887384E1,1.2211376E0,-1.170534E0,-2.3383621E1,-1.1309794E0,-2.8643053E0,-6.922829E-1,-1.6786148E-1,-4.986713E-2,-3.7791932E0,3.5543168E0,2.2450764E1,6.603243E-1,1.0114586E-2,1.0969518E0,-3.6680644E0,-5.27434E-1,-1.4834823E-2,4.9094006E-1,-3.4732556E-1,3.942613E-1,1.0598325E0,-2.351017E-2,-1.1726484E0,8.4509087E-1,1.5363474E0,-3.6736473E-1,1.0422644E1,-9.947556E-2,-1.9965981E-1,-2.987508E-1,4.2540374E-1,-1.1852382E0,-3.154292E-1,-2.3851447E-1,-1.509253E0,-9.650553E-1,-1.7554194E0,8.1425804E-1,-7.4688256E-1,-2.1831179E-1,2.0921388E0,-4.1186624E0,-1.0268577E0,-1.252758E-1,-7.268254E-2,-4.1402045E-1,2.3622743E-3,-1.5377964E-2,-9.576215E-2,-4.5869347E-2,2.2043526E-2,-2.0191653E-1,5.334256E-1,-2.4227121E-1,-5.318856E-1,-5.346191E-1,7.931134E-1,2.560684E0,-3.7634075E0,3.7751485E-2,1.08146146E-1,-2.1306647E-2,1.09055035E-1,9.481363E-4,3.393735E-1,-4.6347424E-1,2.7108893E-2,-4.7698956E-2,-2.718539E-1,-4.5827035E-2,1.467293E-2,-2.469132E-2,6.25908E-2,-5.447879E-2,1.7857326E0,5.6524333E-2,-1.05980355E-2,4.1653752E-1,9.78387E-2,3.709375E-2,-9.603303E-2,-1.993409E-1,-2.9717494E-2,1.1816623E-1,2.1457173E-2,2.029655E-1,6.822308E-2,-4.6178535E-2,2.4904858E-1,-1.02676846E-1,1.7552222E0],"categories":[],"categories_nodes":[],"categories_segments":[],"categories_sizes":[],"default_left":[0,0,0,0,0,0,0,0,0,0,0,0,0,0,0,0,0,0,0,0,0,0,0,0,0,0,0,0,0,0,0,0,0,0,0,0,0,0,0,0,0,0,0,0,0,0,0,0,0,0,0,0,0,0,0,0,0,0,0,0,0,0,0,0,0,0,0,0,0,0,0,0,0,0,0,0,0,0,0,0,0,0,0,0,0,0,0,0,0,0,0,0,0,0,0,0,0,0,0,0,0,0,0,0,0,0,0,0,0,0,0,0,0,0,0,0,0,0,0,0,0,0,0,0,0,0,0],"id":7,"left_children":[1,3,5,7,9,11,13,15,17,19,21,23,25,27,29,31,33,35,37,39,41,43,45,47,49,51,53,55,57,59,61,63,65,67,69,71,73,75,77,79,81,83,85,87,89,91,93,95,97,99,101,103,105,107,109,111,113,115,117,119,121,123,125,-1,-1,-1,-1,-1,-1,-1,-1,-1,-1,-1,-1,-1,-1,-1,-1,-1,-1,-1,-1,-1,-1,-1,-1,-1,-1,-1,-1,-1,-1,-1,-1,-1,-1,-1,-1,-1,-1,-1,-1,-1,-1,-1,-1,-1,-1,-1,-1,-1,-1,-1,-1,-1,-1,-1,-1,-1,-1,-1,-1,-1,-1,-1,-1],"loss_changes":[6.252435E5,1.374746E5,1.3151672E5,4.7787E4,4.5623234E4,1.494612E5,4.4089766E4,3.4784656E4,4.500396E4,2.7143703E4,2.5924062E4,4.937528E4,9.487053E4,4.1088156E4,4.090192E4,2.5425406E4,2.0904656E4,1.4631766E4,1.0533521E4,6.3675547E3,2.411964E4,2.4676664E4,1.398943E4,3.6855344E4,7.193249E4,6.239333E4,2.3174867E4,3.802392E4,1.5887732E4,1.8057234E4,4.3321793E4,2.0953578E4,3.0705E4,1.7712133E4,1.5443092E4,1.13425E4,4.331258E3,1.6330977E4,4.713791E3,3.7810469E3,8.032754E3,4.337608E4,1.3928214E4,2.4111262E4,1.6904148E4,6.353257E3,1.0824566E4,5.4352656E4,2.598494E4,1.4776265E4,2.5974875E4,5.3583875E4,3.3343777E4,2.4778773E4,1.3668148E5,3.3886758E4,2.7711492E4,2.2557363E4,1.0766939E4,1.5601781E4,3.276639E4,6.437375E3,3.087396E4,0E0,0E0,0E0,0E0,0E0,0E0,0E0,0E0,0E0,0E0,0E0,0E0,0E0,0E0,0E0,0E0,0E0,0E0,0E0,0E0,0E0,0E0,0E0,0E0,0E0,0E0,0E0,0E0,0E0,0E0,0E0,0E0,0E0,0E0,0E0,0E0,0E0,0E0,0E0,0E0,0E0,0E0,0E0,0E0,0E0,0E0,0E0,0E0,0E0,0E0,0E0,0E0,0E0,0E0,0E0,0E0,0E0,0E0,0E0,0E0,0E0,0E0,0E0,0E0],"parents":[2147483647,0,0,1,1,2,2,3,3,4,4,5,5,6,6,7,7,8,8,9,9,10,10,11,11,12,12,13,13,14,14,15,15,16,16,17,17,18,18,19,19,20,20,21,21,22,22,23,23,24,24,25,25,26,26,27,27,28,28,29,29,30,30,31,31,32,32,33,33,34,34,35,35,36,36,37,37,38,38,39,39,40,40,41,41,42,42,43,43,44,44,45,45,46,46,47,47,48,48,49,49,50,50,51,51,52,52,53,53,54,54,55,55,56,56,57,57,58,58,59,59,60,60,61,61,62,62],"right_children":[2,4,6,8,10,12,14,16,18,20,22,24,26,28,30,32,34,36,38,40,42,44,46,48,50,52,54,56,58,60,62,64,66,68,70,72,74,76,78,80,82,84,86,88,90,92,94,96,98,100,102,104,106,108,110,112,114,116,118,120,122,124,126,-1,-1,-1,-1,-1,-1,-1,-1,-1,-1,-1,-1,-1,-1,-1,-1,-1,-1,-1,-1,-1,-1,-1,-1,-1,-1,-1,-1,-1,-1,-1,-1,-1,-1,-1,-1,-1,-1,-1,-1,-1,-1,-1,-1,-1,-1,-1,-1,-1,-1,-1,-1,-1,-1,-1,-1,-1,-1,-1,-1,-1,-1,-1,-1],"split_conditions":[3.71572E5,3.7938E4,3E0,3E0,3E0,1E0,4E0,3E0,9E0,1E0,5E0,3E0,4E0,1.711572E6,5E0,9E0,2E0,5E0,3.0475E4,4E0,3E0,1.06705E5,2.34856E5,5E0,5E0,2E0,5E0,1.420115E6,9E0,3E0,3E0,1E0,4E0,1.4228E4,3.0475E4,4E0,3E0,2.2153E4,1E0,4E0,8E0,1E0,3E0,3E0,6E0,3E0,4E0,3E0,6E0,1.441851E6,1E1,3E0,7.93307E5,1E0,3E0,1.154243E6,1.427851E6,1.860744E6,1E1,2E0,5E0,3E0,4E0,-9.947556E-2,-1.9965981E-1,-2.987508E-1,4.2540374E-1,-1.1852382E0,-3.154292E-1,-2.3851447E-1,-1.509253E0,-9.650553E-1,-1.7554194E0,8.1425804E-1,-7.4688256E-1,-2.1831179E-1,2.0921388E0,-4.1186624E0,-1.0268577E0,-1.252758E-1,-7.268254E-2,-4.1402045E-1,2.3622743E-3,-1.5377964E-2,-9.576215E-2,-4.5869347E-2,2.2043526E-2,-2.0191653E-1,5.334256E-1,-2.4227121E-1,-5.318856E-1,-5.346191E-1,7.931134E-1,2.560684E0,-3.7634075E0,3.7751485E-2,1.08146146E-1,-2.1306647E-2,1.09055035E-1,9.481363E-4,3.393735E-1,-4.6347424E-1,2.7108893E-2,-4.7698956E-2,-2.718539E-1,-4.5827035E-2,1.467293E-2,-2.469132E-2,6.25908E-2,-5.447879E-2,1.7857326E0,5.6524333E-2,-1.05980355E-2,4.1653752E-1,9.78387E-2,3.709375E-2,-9.603303E-2,-1.993409E-1,-2.9717494E-2,1.1816623E-1,2.1457173E-2,2.029655E-1,6.822308E-2,-4.6178535E-2,2.4904858E-1,-1.02676846E-1,1.7552222E0],"split_indices":[8,8,1,2,2,1,0,6,3,7,0,2,0,8,0,3,1,0,8,1,1,8,8,7,3,1,0,8,3,7,2,5,1,8,8,3,1,8,4,0,3,1,0,1,3,3,1,7,7,8,3,2,8,7,2,8,8,8,3,7,7,6,3,0,0,0,0,0,0,0,0,0,0,0,0,0,0,0,0,0,0,0,0,0,0,0,0,0,0,0,0,0,0,0,0,0,0,0,0,0,0,0,0,0,0,0,0,0,0,0,0,0,0,0,0,0,0,0,0,0,0,0,0,0,0,0,0],"split_type":[0,0,0,0,0,0,0,0,0,0,0,0,0,0,0,0,0,0,0,0,0,0,0,0,0,0,0,0,0,0,0,0,0,0,0,0,0,0,0,0,0,0,0,0,0,0,0,0,0,0,0,0,0,0,0,0,0,0,0,0,0,0,0,0,0,0,0,0,0,0,0,0,0,0,0,0,0,0,0,0,0,0,0,0,0,0,0,0,0,0,0,0,0,0,0,0,0,0,0,0,0,0,0,0,0,0,0,0,0,0,0,0,0,0,0,0,0,0,0,0,0,0,0,0,0,0,0],"sum_hessian":[3.195454E6,6.24248E5,2.571206E6,1.07739E5,5.16509E5,1.813903E6,7.57303E5,1.06181E5,1.558E3,5.05926E5,1.0583E4,5.76853E5,1.23705E6,5.81787E5,1.75516E5,1.03488E5,2.693E3,8.1E2,7.48E2,7.902E4,4.26906E5,1.0371E4,2.12E2,5.64118E5,1.2735E4,9.50217E5,2.86833E5,5.05761E5,7.6026E4,1.51288E5,2.4228E4,8.3584E4,1.9904E4,1.044E3,1.649E3,7.4E2,7E1,7.27E2,2.1E1,7.6841E4,2.179E3,3.03572E5,1.23334E5,2.272E3,8.099E3,1.61E2,5.1E1,4.56358E5,1.0776E5,5.915E3,6.82E3,4.84805E5,4.65412E5,2.48814E5,3.8019E4,3.96185E5,1.09576E5,6.1042E4,1.4984E4,7.3519E4,7.7769E4,2.3851E4,3.77E2,4.0577E4,4.3007E4,1.9301E4,6.03E2,6.88E2,3.56E2,1.548E3,1.01E2,3.45E2,3.95E2,3.9E1,3.1E1,6.96E2,3.1E1,8E0,1.3E1,5.9047E4,1.7794E4,1.511E3,6.68E2,1.00206E5,2.03366E5,7.0517E4,5.2817E4,1.664E3,6.08E2,4.307E3,3.792E3,5.3E1,1.08E2,4.9E1,2E0,2.73018E5,1.8334E5,8.9312E4,1.8448E4,4.015E3,1.9E3,5.476E3,1.344E3,4.73896E5,1.0909E4,1.24287E5,3.41125E5,3.8475E4,2.10339E5,3.7612E4,4.07E2,2.95264E5,1.00921E5,2.799E3,1.06777E5,4.2956E4,1.8086E4,7.733E3,7.251E3,4.7932E4,2.5587E4,4.9296E4,2.8473E4,2.3089E4,7.62E2,1.45E2,2.32E2],"tree_param":{"num_deleted":"0","num_feature":"9","num_nodes":"127","size_leaf_vector":"1"}},{"base_weights":[-1.856731E-5,-9.002608E-1,1.773832E-1,-1.9820615E0,-7.317361E-1,-3.1345496E-1,2.675323E-1,-1.283393E0,-2.5594108E0,-5.910669E-1,-1.2412516E0,-6.867776E-1,-1.6460264E-1,1.527664E-1,6.4822114E-1,-1.1880027E0,-1.0185424E1,-2.0381477E0,-5.4227915E0,-6.815523E-1,1.9433802E-1,-6.332992E-1,-1.4281031E0,-6.143987E-1,-4.1749725E0,4.5099124E-1,-2.6102567E-1,1.9149584E-1,-1.4941745E0,8.036947E-1,-3.5573366E-1,-1.0923406E0,-4.617905E0,-1.3915743E1,-4.487623E0,-2.487447E0,-7.33576E-1,-5.2807937E0,-2.249677E1,-1.2297801E0,-5.4679793E-1,-2.340283E-1,9.867179E-1,-3.8700613E-1,-1.6540157E0,-2.2257679E0,-1.0586374E0,-8.043588E-2,-9.712635E-1,-4.4413075E0,2.4815271E1,1.2288027E0,2.2617346E-1,-7.917022E-1,-1.2703711E-1,6.53302E-1,8.361448E-2,-1.3431838E0,-1.1376657E1,5.263809E-1,1.0467273E0,-4.9885294E-1,1.0907457E1,-2.222148E-1,-8.2498826E-2,-6.600786E-2,-6.70091E-1,-8.6184007E-1,-2.208511E0,-2.2228355E0,1.1080026E-2,-2.7639398E-1,1.6815916E-1,-9.350649E-2,4.2529002E-1,-2.3899381E-1,-6.077628E-1,-1.4349052E0,-3.8404624E0,-6.6241935E-2,-1.4023104E-1,-5.1318057E-2,-2.2597526E-1,-5.8392197E-2,6.3681036E-2,8.386506E-3,2.2512996E-1,-1.2090254E-1,-2.3047174E-3,-1.7902352E-2,-3.683398E-1,-2.5171408E-1,-1.212819E-1,-1.3538969E-1,-1.5999796E-2,-7.738418E-2,2.4377242E-2,-2.4197355E-1,-7.454186E-2,-3.7083015E-1,-1.022558E0,-9.5070265E-2,3.2449422E0,2.6890606E-1,8.990472E-2,8.709195E-3,1.4874211E-1,-1.155256E-1,-4.2104777E-2,-3.8230427E-2,1.890137E-2,7.556024E-2,-1.7209617E-2,-4.2816084E-2,2.4822045E-2,-3.6253587E-3,-2.3977351E-1,-1.7213863E0,-4.6199527E-1,5.8798026E-2,-2.1032663E-1,1.07518815E-1,-3.847448E-1,-6.032134E-2,2.6517588E-1,1.5654049E0,1.786803E-1],"categories":[],"categories_nodes":[],"categories_segments":[],"categories_sizes":[],"default_left":[0,0,0,0,0,0,0,0,0,0,0,0,0,0,0,0,0,0,0,0,0,0,0,0,0,0,0,0,0,0,0,0,0,0,0,0,0,0,0,0,0,0,0,0,0,0,0,0,0,0,0,0,0,0,0,0,0,0,0,0,0,0,0,0,0,0,0,0,0,0,0,0,0,0,0,0,0,0,0,0,0,0,0,0,0,0,0,0,0,0,0,0,0,0,0,0,0,0,0,0,0,0,0,0,0,0,0,0,0,0,0,0,0,0,0,0,0,0,0,0,0,0,0,0,0,0,0],"id":8,"left_children":[1,3,5,7,9,11,13,15,17,19,21,23,25,27,29,31,33,35,37,39,41,43,45,47,49,51,53,55,57,59,61,63,65,67,69,71,73,75,77,79,81,83,85,87,89,91,93,95,97,99,101,103,105,107,109,111,113,115,117,119,121,123,125,-1,-1,-1,-1,-1,-1,-1,-1,-1,-1,-1,-1,-1,-1,-1,-1,-1,-1,-1,-1,-1,-1,-1,-1,-1,-1,-1,-1,-1,-1,-1,-1,-1,-1,-1,-1,-1,-1,-1,-1,-1,-1,-1,-1,-1,-1,-1,-1,-1,-1,-1,-1,-1,-1,-1,-1,-1,-1,-1,-1,-1,-1,-1,-1],"loss_changes":[5.1032888E5,9.590025E4,1.18118234E5,2.8596469E4,3.2620297E4,2.3017066E4,9.8530625E4,2.7230883E4,5.7930703E4,2.5347703E4,1.1184859E4,2.980752E4,1.7577633E4,1.105288E5,8.153983E4,1.0410207E4,7.164121E3,1.9248875E4,1.43746875E4,2.3626531E4,1.2507165E4,5.819414E3,2.219489E4,2.2041902E4,1.8640871E4,7.0123677E3,1.8204662E4,8.434642E4,5.9392188E4,3.0485688E4,1.1292622E5,9.326582E3,7.0938086E3,8.681227E3,1.1097262E4,2.8164188E4,8.458694E3,1.3645422E4,5.799953E3,6.175836E3,1.4782195E4,7.288209E3,1.4762398E4,5.580301E3,1.3469295E4,7.0338047E3,1.3658535E4,1.0417789E4,2.2679754E4,1.0048816E4,4.3582803E3,4.3274814E3,5.4574204E3,6.954379E3,1.6491902E4,2.7071562E4,1.1561375E5,5.4047008E4,2.3545203E4,3.4224203E4,3.358347E4,2.274563E4,3.8025727E4,0E0,0E0,0E0,0E0,0E0,0E0,0E0,0E0,0E0,0E0,0E0,0E0,0E0,0E0,0E0,0E0,0E0,0E0,0E0,0E0,0E0,0E0,0E0,0E0,0E0,0E0,0E0,0E0,0E0,0E0,0E0,0E0,0E0,0E0,0E0,0E0,0E0,0E0,0E0,0E0,0E0,0E0,0E0,0E0,0E0,0E0,0E0,0E0,0E0,0E0,0E0,0E0,0E0,0E0,0E0,0E0,0E0,0E0,0E0,0E0,0E0,0E0,0E0,0E0],"parents":[2147483647,0,0,1,1,2,2,3,3,4,4,5,5,6,6,7,7,8,8,9,9,10,10,11,11,12,12,13,13,14,14,15,15,16,16,17,17,18,18,19,19,20,20,21,21,22,22,23,23,24,24,25,25,26,26,27,27,28,28,29,29,30,30,31,31,32,32,33,33,34,34,35,35,36,36,37,37,38,38,39,39,40,40,41,41,42,42,43,43,44,44,45,45,46,46,47,47,48,48,49,49,50,50,51,51,52,52,53,53,54,54,55,55,56,56,57,57,58,58,59,59,60,60,61,61,62,62],"right_children":[2,4,6,8,10,12,14,16,18,20,22,24,26,28,30,32,34,36,38,40,42,44,46,48,50,52,54,56,58,60,62,64,66,68,70,72,74,76,78,80,82,84,86,88,90,92,94,96,98,100,102,104,106,108,110,112,114,116,118,120,122,124,126,-1,-1,-1,-1,-1,-1,-1,-1,-1,-1,-1,-1,-1,-1,-1,-1,-1,-1,-1,-1,-1,-1,-1,-1,-1,-1,-1,-1,-1,-1,-1,-1,-1,-1,-1,-1,-1,-1,-1,-1,-1,-1,-1,-1,-1,-1,-1,-1,-1,-1,-1,-1,-1,-1,-1,-1,-1,-1,-1,-1,-1,-1,-1,-1],"split_conditions":[3.12015E5,1.4228E4,1E0,5E0,2.42926E5,7.79211E5,4E0,3E0,7.51E3,2.17896E5,1E0,3E0,9.34577E5,3E0,5E0,3E0,3E0,4E0,6E0,1E0,2E0,5E0,2E0,4.99311E5,5E0,1E0,1E0,2E0,4E0,2E0,3E0,1E0,2E0,2E0,2E0,6E0,4E0,6E0,3E0,1E0,3E0,3E0,3E0,1E0,3E0,4E0,2.94723E5,3.71572E5,5.34171E5,7.37912E5,1E0,8.08062E5,1E1,2E0,1.477575E6,1.737226E6,3E0,5E0,2E0,3E0,1.912672E6,3E0,5E0,-2.222148E-1,-8.2498826E-2,-6.600786E-2,-6.70091E-1,-8.6184007E-1,-2.208511E0,-2.2228355E0,1.1080026E-2,-2.7639398E-1,1.6815916E-1,-9.350649E-2,4.2529002E-1,-2.3899381E-1,-6.077628E-1,-1.4349052E0,-3.8404624E0,-6.6241935E-2,-1.4023104E-1,-5.1318057E-2,-2.2597526E-1,-5.8392197E-2,6.3681036E-2,8.386506E-3,2.2512996E-1,-1.2090254E-1,-2.3047174E-3,-1.7902352E-2,-3.683398E-1,-2.5171408E-1,-1.212819E-1,-1.3538969E-1,-1.5999796E-2,-7.738418E-2,2.4377242E-2,-2.4197355E-1,-7.454186E-2,-3.7083015E-1,-1.022558E0,-9.5070265E-2,3.2449422E0,2.6890606E-1,8.990472E-2,8.709195E-3,1.4874211E-1,-1.155256E-1,-4.2104777E-2,-3.8230427E-2,1.890137E-2,7.556024E-2,-1.7209617E-2,-4.2816084E-2,2.4822045E-2,-3.6253587E-3,-2.3977351E-1,-1.7213863E0,-4.6199527E-1,5.8798026E-2,-2.1032663E-1,1.07518815E-1,-3.847448E-1,-6.032134E-2,2.6517588E-1,1.5654049E0,1.786803E-1],"split_indices":[8,8,7,3,8,8,0,2,8,8,1,2,8,2,0,6,1,0,7,0,6,7,1,8,0,1,0,7,1,1,2,0,3,4,7,7,1,3,0,1,2,1,0,6,0,0,8,8,8,8,1,8,3,4,8,8,7,3,6,2,8,6,7,0,0,0,0,0,0,0,0,0,0,0,0,0,0,0,0,0,0,0,0,0,0,0,0,0,0,0,0,0,0,0,0,0,0,0,0,0,0,0,0,0,0,0,0,0,0,0,0,0,0,0,0,0,0,0,0,0,0,0,0,0,0,0,0],"split_type":[0,0,0,0,0,0,0,0,0,0,0,0,0,0,0,0,0,0,0,0,0,0,0,0,0,0,0,0,0,0,0,0,0,0,0,0,0,0,0,0,0,0,0,0,0,0,0,0,0,0,0,0,0,0,0,0,0,0,0,0,0,0,0,0,0,0,0,0,0,0,0,0,0,0,0,0,0,0,0,0,0,0,0,0,0,0,0,0,0,0,0,0,0,0,0,0,0,0,0,0,0,0,0,0,0,0,0,0,0,0,0,0,0,0,0,0,0,0,0,0,0,0,0,0,0,0,0],"sum_hessian":[3.195454E6,5.26035E5,2.669419E6,7.09E4,4.55135E5,4.14201E5,2.255218E6,3.2081E4,3.8819E4,3.56667E5,9.8468E4,1.18072E5,2.96129E5,1.732826E6,5.22392E5,3.1742E4,3.39E2,3.2842E4,5.977E3,3.19821E5,3.6846E4,2.315E4,7.5318E4,1.15673E5,2.399E3,4.0102E4,2.56027E5,1.693014E6,3.9812E4,4.52342E5,7.005E4,3.0882E4,8.6E2,2.04E2,1.35E2,2.4428E4,8.414E3,5.929E3,4.8E1,6.31E4,2.56721E5,2.3917E4,1.2929E4,1.8651E4,4.499E3,2.3841E4,5.1477E4,4.6339E4,6.9334E4,2.378E3,2.1E1,8.991E3,3.1111E4,5.1611E4,2.04416E5,3.20604E5,1.37241E6,3.9214E4,5.98E2,2.11272E5,2.4107E5,6.9172E4,8.78E2,5.908E3,2.4974E4,2.97E2,5.63E2,1.25E2,7.9E1,2.7E1,1.08E2,2.2909E4,1.519E3,8.088E3,3.26E2,1.282E3,4.647E3,3.3E1,1.5E1,1.4715E4,4.8385E4,2.51781E5,4.94E3,1.7062E4,6.855E3,7.544E3,5.385E3,5.723E3,1.2928E4,2.606E3,1.893E3,1.8514E4,5.327E3,3.8746E4,1.2731E4,1.4763E4,3.1576E4,9.351E3,5.9983E4,2.112E3,2.66E2,5E0,1.6E1,1.655E3,7.336E3,2.8022E4,3.089E3,2.6054E4,2.5557E4,1.13082E5,9.1334E4,2.8525E5,3.5354E4,3.33993E5,1.038417E6,1.7512E4,2.1702E4,3.2E2,2.78E2,2.06437E5,4.835E3,2.39677E5,1.393E3,6.6955E4,2.217E3,5.77E2,3.01E2],"tree_param":{"num_deleted":"0","num_feature":"9","num_nodes":"127","size_leaf_vector":"1"}},{"base_weights":[-2.0071031E-5,-7.3393524E-1,1.781631E-1,-1.5797542E0,-5.575025E-1,-2.29272E-1,2.8014868E-1,-1.5104278E0,-6.3004904E0,-5.210743E-1,-2.2987576E0,-6.253258E-1,-8.78177E-2,1.4650343E-1,6.004298E-1,-1.4297916E0,-4.607482E0,-1.0792255E1,-1.428499E0,-9.8984516E-1,-4.3430305E-1,-2.497332E0,7.3815804E0,-3.1823257E-1,-2.2158866E0,3.3332217E-1,-2.7303106E-1,5.172444E-1,-2.580332E-2,6.3108635E-1,-8.9993E-1,-6.146047E-1,-1.6699376E0,-5.2650857E0,6.5805774E0,-1.196722E1,1.6224177E0,-8.327018E-1,-2.1079037E1,-9.4672513E-1,-2.509313E0,-5.6821674E-1,-1.04688495E-1,1.5984449E-1,-3.2426734E0,1.4783058E0,1.6253826E1,6.3640356E-1,-6.5253764E-1,-1.005865E0,-2.7988276E0,1.3227543E-1,1.2039759E0,-8.657129E-1,-1.6289043E-1,6.526786E-1,-5.5476233E-2,8.458786E-1,-8.71378E-2,3.089693E-1,7.58898E-1,-7.0475054E-1,-6.72422E0,-9.35055E-2,1.862521E-1,-2.1347605E-1,-1.19217336E-1,-8.7367696E-1,-3.0746874E-1,-2.3359965E-1,1.5064291E0,-1.3084279E0,1.16698734E-1,8.0543846E-1,-6.468241E-1,-1.7466448E-1,1.9100142E0,-3.7334256E0,-9.123608E-1,-6.473368E-2,-1.1005648E-1,-3.6569113E-1,8.811257E-3,-1.01120295E-2,-7.983709E-2,-4.7398037E-3,-1.8586953E-1,-1.613446E-1,5.007741E-1,-1.4187182E-1,-4.2049533E-1,-1.5611448E0,7.277106E-1,2.9185843E0,8.2894117E-1,7.310628E-2,-3.773695E-1,-9.334506E-2,2.813062E-2,-1.6834514E-1,2.4172662E-2,-2.6692942E-1,-6.598761E-1,5.2981656E-2,-3.394464E-2,1.0367997E-1,2.5838074E-1,-1.4920379E-1,-5.053524E-2,-2.1089876E-2,1.6589044E-1,3.7036646E-2,1.0747001E-1,1.5661558E-2,-9.216207E-2,2.4794752E-2,1.4033832E-1,-5.4919E-2,4.3606786E-3,6.1075907E-2,-7.3488094E-2,1.1835604E-1,5.6112178E-2,-3.9013755E-2,-2.9928523E-1,3.4663302E-1,-8.867063E-1],"categories":[],"categories_nodes":[],"categories_segments":[],"categories_sizes":[],"default_left":[0,0,0,0,0,0,0,0,0,0,0,0,0,0,0,0,0,0,0,0,0,0,0,0,0,0,0,0,0,0,0,0,0,0,0,0,0,0,0,0,0,0,0,0,0,0,0,0,0,0,0,0,0,0,0,0,0,0,0,0,0,0,0,0,0,0,0,0,0,0,0,0,0,0,0,0,0,0,0,0,0,0,0,0,0,0,0,0,0,0,0,0,0,0,0,0,0,0,0,0,0,0,0,0,0,0,0,0,0,0,0,0,0,0,0,0,0,0,0,0,0,0,0,0,0,0,0],"id":9,"left_children":[1,3,5,7,9,11,13,15,17,19,21,23,25,27,29,31,33,35,37,39,41,43,45,47,49,51,53,55,57,59,61,63,65,67,69,71,73,75,77,79,81,83,85,87,89,91,93,95,97,99,101,103,105,107,109,111,113,115,117,119,121,123,125,-1,-1,-1,-1,-1,-1,-1,-1,-1,-1,-1,-1,-1,-1,-1,-1,-1,-1,-1,-1,-1,-1,-1,-1,-1,-1,-1,-1,-1,-1,-1,-1,-1,-1,-1,-1,-1,-1,-1,-1,-1,-1,-1,-1,-1,-1,-1,-1,-1,-1,-1,-1,-1,-1,-1,-1,-1,-1,-1,-1,-1,-1,-1,-1],"loss_changes":[4.17874E5,9.3155875E4,1.0684015E5,3.5250688E4,3.2761438E4,2.8838273E4,8.802447E4,2.6510797E4,3.4101484E4,2.0578562E4,2.0363703E4,6.616772E4,2.958491E4,9.269116E4,2.7849344E4,2.0258375E4,1.9855238E4,1.184932E4,8.751541E3,5.175047E3,1.884357E4,2.0542297E4,1.1131911E4,3.6237133E4,1.5460336E4,2.027952E4,1.7196393E4,3.5710945E4,5.2961676E4,2.4427719E4,1.3777606E4,1.8696424E4,1.7749969E4,1.9326258E4,1.1382037E4,1.0886984E4,3.7468562E3,1.32956875E4,3.9348145E3,3.5384688E3,6.498467E3,3.263529E4,1.239358E4,1.9548443E4,1.4210797E4,1.2897515E4,8.512721E3,1.2296851E4,2.2061066E4,6.0269146E3,7.2642812E3,1.7650957E4,5.0108145E3,9.3169375E3,1.9430057E4,4.436133E4,1.6175302E4,2.1707355E4,5.590909E4,5.309826E4,3.567647E4,8.444307E3,8.612576E3,0E0,0E0,0E0,0E0,0E0,0E0,0E0,0E0,0E0,0E0,0E0,0E0,0E0,0E0,0E0,0E0,0E0,0E0,0E0,0E0,0E0,0E0,0E0,0E0,0E0,0E0,0E0,0E0,0E0,0E0,0E0,0E0,0E0,0E0,0E0,0E0,0E0,0E0,0E0,0E0,0E0,0E0,0E0,0E0,0E0,0E0,0E0,0E0,0E0,0E0,0E0,0E0,0E0,0E0,0E0,0E0,0E0,0E0,0E0,0E0,0E0,0E0,0E0,0E0],"parents":[2147483647,0,0,1,1,2,2,3,3,4,4,5,5,6,6,7,7,8,8,9,9,10,10,11,11,12,12,13,13,14,14,15,15,16,16,17,17,18,18,19,19,20,20,21,21,22,22,23,23,24,24,25,25,26,26,27,27,28,28,29,29,30,30,31,31,32,32,33,33,34,34,35,35,36,36,37,37,38,38,39,39,40,40,41,41,42,42,43,43,44,44,45,45,46,46,47,47,48,48,49,49,50,50,51,51,52,52,53,53,54,54,55,55,56,56,57,57,58,58,59,59,60,60,61,61,62,62],"right_children":[2,4,6,8,10,12,14,16,18,20,22,24,26,28,30,32,34,36,38,40,42,44,46,48,50,52,54,56,58,60,62,64,66,68,70,72,74,76,78,80,82,84,86,88,90,92,94,96,98,100,102,104,106,108,110,112,114,116,118,120,122,124,126,-1,-1,-1,-1,-1,-1,-1,-1,-1,-1,-1,-1,-1,-1,-1,-1,-1,-1,-1,-1,-1,-1,-1,-1,-1,-1,-1,-1,-1,-1,-1,-1,-1,-1,-1,-1,-1,-1,-1,-1,-1,-1,-1,-1,-1,-1,-1,-1,-1,-1,-1,-1,-1,-1,-1,-1,-1,-1,-1,-1,-1,-1,-1,-1],"split_conditions":[3.71572E5,3.7938E4,1E0,3E0,3E0,7.8589E5,3E0,3E0,9E0,1E0,5E0,7.2318E5,1.128105E6,1E0,1.889844E6,1E0,5E0,5E0,3.0475E4,4E0,3E0,1.06705E5,2E0,4.61997E5,1E0,1.065127E6,1E0,5E0,4.76548E5,8.15981E5,3E0,3.0475E4,2E0,2E0,3E0,6E0,3E0,2.2153E4,1E0,1E0,8E0,1E0,5E0,3E0,4E0,1E0,2E0,3E0,6.64702E5,2E0,3E0,9.41076E5,1.12191E6,1.420115E6,3E0,3E0,9E0,3E0,8.00072E5,7.2318E5,1.148317E6,4E0,2E0,-9.35055E-2,1.862521E-1,-2.1347605E-1,-1.19217336E-1,-8.7367696E-1,-3.0746874E-1,-2.3359965E-1,1.5064291E0,-1.3084279E0,1.16698734E-1,8.0543846E-1,-6.468241E-1,-1.7466448E-1,1.9100142E0,-3.7334256E0,-9.123608E-1,-6.473368E-2,-1.1005648E-1,-3.6569113E-1,8.811257E-3,-1.01120295E-2,-7.983709E-2,-4.7398037E-3,-1.8586953E-1,-1.613446E-1,5.007741E-1,-1.4187182E-1,-4.2049533E-1,-1.5611448E0,7.277106E-1,2.9185843E0,8.2894117E-1,7.310628E-2,-3.773695E-1,-9.334506E-2,2.813062E-2,-1.6834514E-1,2.4172662E-2,-2.6692942E-1,-6.598761E-1,5.2981656E-2,-3.394464E-2,1.0367997E-1,2.5838074E-1,-1.4920379E-1,-5.053524E-2,-2.1089876E-2,1.6589044E-1,3.7036646E-2,1.0747001E-1,1.5661558E-2,-9.216207E-2,2.4794752E-2,1.4033832E-1,-5.4919E-2,4.3606786E-3,6.1075907E-2,-7.3488094E-2,1.1835604E-1,5.6112178E-2,-3.9013755E-2,-2.9928523E-1,3.4663302E-1,-8.867063E-1],"split_indices":[8,8,0,2,2,8,1,6,3,7,0,8,8,1,8,1,0,0,8,1,1,8,6,8,2,8,7,7,8,8,6,8,4,1,7,7,1,8,4,2,3,1,0,1,3,1,5,2,8,6,2,8,8,8,6,7,3,7,8,8,8,1,0,0,0,0,0,0,0,0,0,0,0,0,0,0,0,0,0,0,0,0,0,0,0,0,0,0,0,0,0,0,0,0,0,0,0,0,0,0,0,0,0,0,0,0,0,0,0,0,0,0,0,0,0,0,0,0,0,0,0,0,0,0,0,0,0],"split_type":[0,0,0,0,0,0,0,0,0,0,0,0,0,0,0,0,0,0,0,0,0,0,0,0,0,0,0,0,0,0,0,0,0,0,0,0,0,0,0,0,0,0,0,0,0,0,0,0,0,0,0,0,0,0,0,0,0,0,0,0,0,0,0,0,0,0,0,0,0,0,0,0,0,0,0,0,0,0,0,0,0,0,0,0,0,0,0,0,0,0,0,0,0,0,0,0,0,0,0,0,0,0,0,0,0,0,0,0,0,0,0,0,0,0,0,0,0,0,0,0,0,0,0,0,0,0,0],"sum_hessian":[3.195454E6,6.24248E5,2.571206E6,1.07739E5,5.16509E5,5.14753E5,2.056453E6,1.06181E5,1.558E3,5.05926E5,1.0583E4,1.35465E5,3.79288E5,1.450992E6,6.05461E5,1.03488E5,2.693E3,8.1E2,7.48E2,7.902E4,4.26906E5,1.0371E4,2.12E2,1.13544E5,2.1921E4,1.15855E5,2.63433E5,4.60393E5,9.90599E5,5.93338E5,1.2123E4,2.355E4,7.9938E4,2.544E3,1.49E2,7.4E2,7E1,7.27E2,2.1E1,7.6841E4,2.179E3,3.03572E5,1.23334E5,2.272E3,8.099E3,1.28E2,8.4E1,2.9449E4,8.4095E4,7.128E3,1.4793E4,9.4122E4,2.1733E4,4.1282E4,2.22151E5,3.72343E5,8.805E4,6.5119E4,9.2548E5,1.68551E5,4.24787E5,1.1731E4,3.92E2,2.0853E4,2.697E3,4.0516E4,3.9422E4,9.83E2,1.561E3,7.3E1,7.6E1,6.82E2,5.8E1,3.9E1,3.1E1,6.96E2,3.1E1,8E0,1.3E1,2.6084E4,5.0757E4,1.511E3,6.68E2,1.00206E5,2.03366E5,1.19434E5,3.9E3,1.664E3,6.08E2,2.798E3,5.301E3,3.2E1,9.6E1,3.1E1,5.3E1,2.8831E4,6.18E2,6.4648E4,1.9447E4,4.619E3,2.509E3,1.4307E4,4.86E2,5.1077E4,4.3045E4,1.9386E4,2.347E3,1.5076E4,2.6206E4,2.16448E5,5.703E3,2.23101E5,1.49242E5,7.0731E4,1.7319E4,3.1421E4,3.3698E4,2.04119E5,7.21361E5,1.3075E5,3.7801E4,1.34972E5,2.89815E5,1.0314E4,1.417E3,6.8E1,3.24E2],"tree_param":{"num_deleted":"0","num_feature":"9","num_nodes":"127","size_leaf_vector":"1"}},{"base_weights":[-2.0354735E-5,-6.47853E-1,1.6509846E-1,-1.4218159E0,-4.938002E-1,1.1146569E0,1.1686854E-1,-1.3593856E0,-5.6729693E0,-4.5754766E-1,-2.223291E0,1.2095821E0,-3.2572274E0,-3.5513282E-1,2.56499E-1,-1.2868139E0,-4.1466966E0,-9.714303E0,-1.2895321E0,-8.3014274E-1,-3.661296E-1,-1.6076632E0,-4.927986E0,8.07268E-1,1.5875365E0,1.3078874E0,-4.804522E0,-7.587987E-2,-1.2189012E0,5.685584E-1,1.1305212E-1,-2.2846642E0,-1.105756E0,-4.739038E0,5.9310026E0,-8.867649E0,-2.5811861E1,-7.470451E-1,-1.9182302E1,-2.9044566E-1,-9.975083E-1,-3.2714716E-1,-1.3150369E0,-1.792696E0,6.677407E0,-7.6429853E0,-2.4954286E0,1.1660384E0,4.6717566E-1,2.1475844E0,1.3078257E0,1.9775597E0,-3.518663E1,-5.097705E0,1.5544325E1,-3.027929E-1,6.599894E-1,-1.7725773E0,-5.555236E-1,4.027772E-1,1.0139745E0,-4.1055802E-1,3.0544695E-1,-1.824684E-1,-4.176242E-1,-6.3206695E-2,-1.5523367E-1,-7.863977E-1,-2.7674124E-1,-2.1055563E-1,1.3577422E0,-9.9339646E-1,1.9678879E-1,-4.1582963E-1,-4.9525895E0,-1.572228E-1,1.7249817E0,5.887324E-1,-2.5080404E0,-2.2786893E-2,-2.3241349E-1,-1.2145694E-1,-5.292767E-2,-4.622176E-2,6.1294134E-3,-4.962457E-1,-1.0524281E-1,1.4401165E-2,-2.4609335E-1,2.6716924E-1,2.403547E0,-7.2686374E-1,-2.278917E0,-6.3872427E-1,-4.7276463E-2,9.259901E-2,1.7007077E-1,1.3291198E-2,1.2685898E-1,1.1231791E-1,2.789068E-1,1.3926362E-1,-1.5561219E-1,-4.9951306E-1,3.0034444E-1,-5.090987E0,-2.9921165E-1,-8.174686E-1,-3.7002954E-1,2.16354E0,-4.2426434E0,-2.593408E-2,-2.276241E-1,9.11216E-3,9.21401E-2,-2.761534E-1,-1.5738027E-1,-9.723159E-2,-1.8920863E-2,7.51197E-2,-1.1573821E-2,2.1373386E-2,1.1556142E-1,-6.527488E-3,-5.796047E-2,6.2312406E-2,-1.5358021E-2],"categories":[],"categories_nodes":[],"categories_segments":[],"categories_sizes":[],"default_left":[0,0,0,0,0,0,0,0,0,0,0,0,0,0,0,0,0,0,0,0,0,0,0,0,0,0,0,0,0,0,0,0,0,0,0,0,0,0,0,0,0,0,0,0,0,0,0,0,0,0,0,0,0,0,0,0,0,0,0,0,0,0,0,0,0,0,0,0,0,0,0,0,0,0,0,0,0,0,0,0,0,0,0,0,0,0,0,0,0,0,0,0,0,0,0,0,0,0,0,0,0,0,0,0,0,0,0,0,0,0,0,0,0,0,0,0,0,0,0,0,0,0,0,0,0,0,0],"id":10,"left_children":[1,3,5,7,9,11,13,15,17,19,21,23,25,27,29,31,33,35,37,39,41,43,45,47,49,51,53,55,57,59,61,63,65,67,69,71,73,75,77,79,81,83,85,87,89,91,93,95,97,99,101,103,105,107,109,111,113,115,117,119,121,123,125,-1,-1,-1,-1,-1,-1,-1,-1,-1,-1,-1,-1,-1,-1,-1,-1,-1,-1,-1,-1,-1,-1,-1,-1,-1,-1,-1,-1,-1,-1,-1,-1,-1,-1,-1,-1,-1,-1,-1,-1,-1,-1,-1,-1,-1,-1,-1,-1,-1,-1,-1,-1,-1,-1,-1,-1,-1,-1,-1,-1,-1,-1,-1,-1],"loss_changes":[3.4181588E5,7.7383875E4,1.1661884E5,2.8586547E4,3.3937062E4,5.1084875E4,1.5971225E5,2.1473156E4,2.760505E4,1.8058617E4,1.8496172E4,1.8317094E4,1.848461E4,1.334442E5,8.371356E4,1.8694672E4,1.6109766E4,1.0824273E4,7.255909E3,9.434602E3,1.5747523E4,1.3891848E4,1.3585973E4,7.1198906E3,9.727594E3,1.6272883E4,1.1736668E4,6.980882E4,4.9642766E4,4.348722E4,1.2906635E5,1.3820695E4,1.852932E4,1.5658523E4,9.246223E3,8.9393125E3,2.0333791E4,1.0838434E4,3.400647E3,3.1461406E3,8.102508E3,2.1455277E4,1.6085611E4,1.146291E4,1.370301E4,5.351211E3,8.561533E3,3.643207E3,8.025626E3,1.3591773E4,1.0064727E4,4.678873E3,5.9220967E3,8.255473E3,1.080483E4,2.7399951E4,1.4652625E4,1.4477859E4,9.387941E3,7.753817E4,1.8105703E4,2.0094188E4,1.3662434E5,0E0,0E0,0E0,0E0,0E0,0E0,0E0,0E0,0E0,0E0,0E0,0E0,0E0,0E0,0E0,0E0,0E0,0E0,0E0,0E0,0E0,0E0,0E0,0E0,0E0,0E0,0E0,0E0,0E0,0E0,0E0,0E0,0E0,0E0,0E0,0E0,0E0,0E0,0E0,0E0,0E0,0E0,0E0,0E0,0E0,0E0,0E0,0E0,0E0,0E0,0E0,0E0,0E0,0E0,0E0,0E0,0E0,0E0,0E0,0E0,0E0,0E0,0E0,0E0],"parents":[2147483647,0,0,1,1,2,2,3,3,4,4,5,5,6,6,7,7,8,8,9,9,10,10,11,11,12,12,13,13,14,14,15,15,16,16,17,17,18,18,19,19,20,20,21,21,22,22,23,23,24,24,25,25,26,26,27,27,28,28,29,29,30,30,31,31,32,32,33,33,34,34,35,35,36,36,37,37,38,38,39,39,40,40,41,41,42,42,43,43,44,44,45,45,46,46,47,47,48,48,49,49,50,50,51,51,52,52,53,53,54,54,55,55,56,56,57,57,58,58,59,59,60,60,61,61,62,62],"right_children":[2,4,6,8,10,12,14,16,18,20,22,24,26,28,30,32,34,36,38,40,42,44,46,48,50,52,54,56,58,60,62,64,66,68,70,72,74,76,78,80,82,84,86,88,90,92,94,96,98,100,102,104,106,108,110,112,114,116,118,120,122,124,126,-1,-1,-1,-1,-1,-1,-1,-1,-1,-1,-1,-1,-1,-1,-1,-1,-1,-1,-1,-1,-1,-1,-1,-1,-1,-1,-1,-1,-1,-1,-1,-1,-1,-1,-1,-1,-1,-1,-1,-1,-1,-1,-1,-1,-1,-1,-1,-1,-1,-1,-1,-1,-1,-1,-1,-1,-1,-1,-1,-1,-1,-1,-1,-1],"split_conditions":[3.85698E5,3.7938E4,4.61997E5,3E0,3E0,3E0,8.00072E5,3E0,9E0,1E0,3.26678E5,3E0,3E0,7.2318E5,1.148317E6,1E0,5E0,3.0475E4,3.0475E4,1E0,5E0,5E0,2E0,1E0,1E0,4E0,5E0,6.64702E5,7.65625E5,1.056887E6,1.357615E6,9E0,1E0,2E0,3E0,5E0,3E0,2.2153E4,1E0,6E0,2E0,4E0,6.0988E4,1.06705E5,2.34856E5,6E0,1E0,4.37567E5,3E0,2E0,4E0,1E0,4.30512E5,1E0,4E0,3E0,4E0,7.30376E5,2E0,9.56067E5,1E0,1E0,1.689259E6,-1.824684E-1,-4.176242E-1,-6.3206695E-2,-1.5523367E-1,-7.863977E-1,-2.7674124E-1,-2.1055563E-1,1.3577422E0,-9.9339646E-1,1.9678879E-1,-4.1582963E-1,-4.9525895E0,-1.572228E-1,1.7249817E0,5.887324E-1,-2.5080404E0,-2.2786893E-2,-2.3241349E-1,-1.2145694E-1,-5.292767E-2,-4.622176E-2,6.1294134E-3,-4.962457E-1,-1.0524281E-1,1.4401165E-2,-2.4609335E-1,2.6716924E-1,2.403547E0,-7.2686374E-1,-2.278917E0,-6.3872427E-1,-4.7276463E-2,9.259901E-2,1.7007077E-1,1.3291198E-2,1.2685898E-1,1.1231791E-1,2.789068E-1,1.3926362E-1,-1.5561219E-1,-4.9951306E-1,3.0034444E-1,-5.090987E0,-2.9921165E-1,-8.174686E-1,-3.7002954E-1,2.16354E0,-4.2426434E0,-2.593408E-2,-2.276241E-1,9.11216E-3,9.21401E-2,-2.761534E-1,-1.5738027E-1,-9.723159E-2,-1.8920863E-2,7.51197E-2,-1.1573821E-2,2.1373386E-2,1.1556142E-1,-6.527488E-3,-5.796047E-2,6.2312406E-2,-1.5358021E-2],"split_indices":[8,8,8,2,2,2,8,6,3,0,8,7,3,8,8,7,0,8,8,1,0,0,1,4,2,1,0,8,8,8,8,3,5,1,7,0,3,8,7,7,2,0,8,8,8,7,6,8,1,0,1,7,8,6,1,2,3,8,1,8,7,2,8,0,0,0,0,0,0,0,0,0,0,0,0,0,0,0,0,0,0,0,0,0,0,0,0,0,0,0,0,0,0,0,0,0,0,0,0,0,0,0,0,0,0,0,0,0,0,0,0,0,0,0,0,0,0,0,0,0,0,0,0,0,0,0,0],"split_type":[0,0,0,0,0,0,0,0,0,0,0,0,0,0,0,0,0,0,0,0,0,0,0,0,0,0,0,0,0,0,0,0,0,0,0,0,0,0,0,0,0,0,0,0,0,0,0,0,0,0,0,0,0,0,0,0,0,0,0,0,0,0,0,0,0,0,0,0,0,0,0,0,0,0,0,0,0,0,0,0,0,0,0,0,0,0,0,0,0,0,0,0,0,0,0,0,0,0,0,0,0,0,0,0,0,0,0,0,0,0,0,0,0,0,0,0,0,0,0,0,0,0,0,0,0,0,0],"sum_hessian":[3.195454E6,6.49029E5,2.546425E6,1.07739E5,5.4129E5,1.23085E5,2.42334E6,1.06181E5,1.558E3,5.30178E5,1.1112E4,1.2047E5,2.615E3,5.53228E5,1.870112E6,1.03488E5,2.693E3,8.1E2,7.48E2,1.04452E5,4.25726E5,9.053E3,2.059E3,5.8356E4,6.2114E4,6.62E2,1.953E3,4.18069E5,1.35159E5,5.8893E5,1.281182E6,1.5892E4,8.7596E4,2.544E3,1.49E2,7.71E2,3.9E1,7.27E2,2.1E1,2.4725E4,7.9727E4,4.08928E5,1.6798E4,8.856E3,1.97E2,9.72E2,1.087E3,2.8397E4,2.9959E4,2.0687E4,4.1427E4,6.51E2,1.1E1,1.926E3,2.7E1,3.19537E5,9.8532E4,7.367E4,6.1489E4,4.2919E5,1.5974E5,3.44261E5,9.36921E5,1.2785E4,3.107E3,4.2509E4,4.5087E4,9.83E2,1.561E3,7.3E1,7.6E1,7.02E2,6.9E1,2.1E1,1.8E1,6.96E2,3.1E1,4E0,1.7E1,2.3988E4,7.37E2,5.4473E4,2.5254E4,3.03421E5,1.05507E5,1.127E3,1.5671E4,2.272E3,6.584E3,1.61E2,3.6E1,9.5E2,2.2E1,3.71E2,7.16E2,1.96E4,8.797E3,2.1142E4,8.817E3,7.967E3,1.272E4,4.0236E4,1.191E3,8.3E1,5.68E2,7E0,4E0,6E2,1.326E3,2.5E1,2E0,3.12654E5,6.883E3,3.1023E4,6.7509E4,1.2327E4,6.1343E4,2.8762E4,3.2727E4,2.56699E5,1.72491E5,2.4022E4,1.35718E5,1.1315E5,2.31111E5,5.53714E5,3.83207E5],"tree_param":{"num_deleted":"0","num_feature":"9","num_nodes":"127","size_leaf_vector":"1"}},{"base_weights":[-2.3661392E-5,-6.6631526E-1,1.3127579E-1,-1.4749116E0,-5.403508E-1,1.0821436E-2,4.2037693E-1,-9.6305084E-1,-2.105734E0,-4.1013765E-1,-1.011995E0,3.5048485E-1,-1.4820752E-1,4.9137297E-1,-2.592695E-1,-8.965307E-1,-7.69262E0,-1.5538849E0,-5.2944665E0,-4.897124E-1,2.805608E-1,-7.033062E-1,-1.3072196E0,3.8880298E-1,-1.3548933E0,-3.7567598E-1,8.78386E-2,6.0198486E-1,4.380304E-2,-1.468832E-1,-8.949848E0,-7.939563E-1,-4.8419127E0,-2.9563808E0,-1.0695796E1,-1.7177993E0,3.6055813E0,-3.3108056E0,-6.284602E0,-9.5241946E-1,-3.759794E-1,-1.0486807E-1,9.93508E-1,-9.3815273E-1,-2.0216895E-2,-5.7243705E0,-1.1276425E0,4.8723876E-1,-2.8181229E-2,8.1786233E-1,-3.237552E0,-3.3630845E-1,-2.1137202E0,-4.9192533E-1,1.933101E-1,2.0908934E-1,7.0065933E-1,-4.93151E-1,5.8745337E-1,-8.2432725E-2,-6.373668E0,1.42552E0,-1.0963995E1,-1.2924927E-1,-2.7339404E-2,-3.343371E-1,-1.5378001E0,-9.376745E-1,7.1051437E-1,-2.3775256E0,-7.7108353E-1,-2.2295646E-1,-2.244928E-2,-2.94227E-2,7.543687E-1,-3.4537655E-1,5.3235483E0,-5.1876444E-1,-8.43713E-1,-1.2607889E-1,-6.703323E-2,-2.7891269E-2,-7.669439E-2,3.4562815E-2,-6.939583E-2,1.9392632E-2,2.1134208E-1,-4.998295E-2,-1.3340867E-1,8.235809E-2,-8.39174E-2,-9.1755867E-1,-4.3051448E-1,-6.171445E-2,-1.378551E-1,2.8089156E-2,7.9459935E-2,-2.1652987E-2,8.845264E-2,-1.6820798E-2,3.0121002E-1,-5.792265E-1,-2.1426108E-1,-4.608835E-2,8.073912E-3,-2.3026799E-1,1.0610911E0,-7.464912E-2,3.169653E-2,3.240541E-2,-2.6025996E-2,1.4987843E-2,2.3253845E-1,9.900755E-2,5.620128E-2,-4.0279835E-2,-1.9182755E-1,6.526952E-2,-1.9737516E-1,-1.4765595E-2,3.6598095E-1,-7.005168E-1,1.7450416E-1,1.1378678E0,-6.281757E-1,-1.7654622E0,-4.686222E-1],"categories":[],"categories_nodes":[],"categories_segments":[],"categories_sizes":[],"default_left":[0,0,0,0,0,0,0,0,0,0,0,0,0,0,0,0,0,0,0,0,0,0,0,0,0,0,0,0,0,0,0,0,0,0,0,0,0,0,0,0,0,0,0,0,0,0,0,0,0,0,0,0,0,0,0,0,0,0,0,0,0,0,0,0,0,0,0,0,0,0,0,0,0,0,0,0,0,0,0,0,0,0,0,0,0,0,0,0,0,0,0,0,0,0,0,0,0,0,0,0,0,0,0,0,0,0,0,0,0,0,0,0,0,0,0,0,0,0,0,0,0,0,0,0,0,0,0],"id":11,"left_children":[1,3,5,7,9,11,13,15,17,19,21,23,25,27,29,31,33,35,37,39,41,43,45,47,49,51,53,55,57,59,61,63,65,67,69,71,73,75,77,79,81,83,85,87,89,91,93,95,97,99,101,103,105,107,109,111,113,115,117,119,121,123,125,-1,-1,-1,-1,-1,-1,-1,-1,-1,-1,-1,-1,-1,-1,-1,-1,-1,-1,-1,-1,-1,-1,-1,-1,-1,-1,-1,-1,-1,-1,-1,-1,-1,-1,-1,-1,-1,-1,-1,-1,-1,-1,-1,-1,-1,-1,-1,-1,-1,-1,-1,-1,-1,-1,-1,-1,-1,-1,-1,-1,-1,-1,-1,-1],"loss_changes":[2.7955038E5,5.357828E4,9.29585E4,2.2891422E4,2.7951422E4,1.0178396E5,3.7883094E4,1.7515543E4,5.587808E4,1.9603379E4,8.9728125E3,3.9267062E4,6.891105E4,3.5191625E4,7.252468E4,1.5682553E4,5.416078E3,2.2903812E4,9.180984E3,1.6830305E4,1.0125307E4,7.722498E3,3.9917055E4,2.4122445E4,5.4018453E4,4.4719414E4,3.8513785E4,2.2097375E4,4.112122E4,2.941979E4,1.982646E4,9.804287E3,1.5453156E4,9.756421E3,8.952428E3,2.0054227E4,1.2810674E4,1.281083E4,7.3327188E3,5.488129E3,9.742289E3,6.3476685E3,1.1577908E4,6.2163066E3,8.512159E3,9.590074E3,6.1942656E3,3.015436E4,1.9294889E4,1.3265981E4,1.977821E4,3.320433E4,3.4831113E4,1.9962764E4,3.1601535E4,1.4336863E4,1.8279812E4,9.124719E3,1.1697643E4,1.7710822E4,3.8625723E3,1.1961798E4,3.326704E4,0E0,0E0,0E0,0E0,0E0,0E0,0E0,0E0,0E0,0E0,0E0,0E0,0E0,0E0,0E0,0E0,0E0,0E0,0E0,0E0,0E0,0E0,0E0,0E0,0E0,0E0,0E0,0E0,0E0,0E0,0E0,0E0,0E0,0E0,0E0,0E0,0E0,0E0,0E0,0E0,0E0,0E0,0E0,0E0,0E0,0E0,0E0,0E0,0E0,0E0,0E0,0E0,0E0,0E0,0E0,0E0,0E0,0E0,0E0,0E0,0E0,0E0,0E0,0E0],"parents":[2147483647,0,0,1,1,2,2,3,3,4,4,5,5,6,6,7,7,8,8,9,9,10,10,11,11,12,12,13,13,14,14,15,15,16,16,17,17,18,18,19,19,20,20,21,21,22,22,23,23,24,24,25,25,26,26,27,27,28,28,29,29,30,30,31,31,32,32,33,33,34,34,35,35,36,36,37,37,38,38,39,39,40,40,41,41,42,42,43,43,44,44,45,45,46,46,47,47,48,48,49,49,50,50,51,51,52,52,53,53,54,54,55,55,56,56,57,57,58,58,59,59,60,60,61,61,62,62],"right_children":[2,4,6,8,10,12,14,16,18,20,22,24,26,28,30,32,34,36,38,40,42,44,46,48,50,52,54,56,58,60,62,64,66,68,70,72,74,76,78,80,82,84,86,88,90,92,94,96,98,100,102,104,106,108,110,112,114,116,118,120,122,124,126,-1,-1,-1,-1,-1,-1,-1,-1,-1,-1,-1,-1,-1,-1,-1,-1,-1,-1,-1,-1,-1,-1,-1,-1,-1,-1,-1,-1,-1,-1,-1,-1,-1,-1,-1,-1,-1,-1,-1,-1,-1,-1,-1,-1,-1,-1,-1,-1,-1,-1,-1,-1,-1,-1,-1,-1,-1,-1,-1,-1,-1,-1,-1,-1],"split_conditions":[3.12015E5,1.4228E4,3E0,6E0,2.42926E5,1E0,4E0,3E0,7.51E3,2.17896E5,1E0,3E0,2E0,9E0,3E0,3E0,2E0,4E0,1E0,1E0,2E0,2.94723E5,2E0,5E0,5E0,3E0,1E0,1E0,1E1,1.912672E6,2E0,2E0,5E0,3E0,1E0,4E0,2E0,4E0,4E0,3E0,9E0,3E0,3E0,1E0,3.0279E5,1E0,1E0,3E0,6E0,1.441851E6,8.15981E5,4E0,5E0,1.535608E6,5E0,3E0,1E0,1.820641E6,3E0,3E0,1E1,1E0,7E0,-1.2924927E-1,-2.7339404E-2,-3.343371E-1,-1.5378001E0,-9.376745E-1,7.1051437E-1,-2.3775256E0,-7.7108353E-1,-2.2295646E-1,-2.244928E-2,-2.94227E-2,7.543687E-1,-3.4537655E-1,5.3235483E0,-5.1876444E-1,-8.43713E-1,-1.2607889E-1,-6.703323E-2,-2.7891269E-2,-7.669439E-2,3.4562815E-2,-6.939583E-2,1.9392632E-2,2.1134208E-1,-4.998295E-2,-1.3340867E-1,8.235809E-2,-8.39174E-2,-9.1755867E-1,-4.3051448E-1,-6.171445E-2,-1.378551E-1,2.8089156E-2,7.9459935E-2,-2.1652987E-2,8.845264E-2,-1.6820798E-2,3.0121002E-1,-5.792265E-1,-2.1426108E-1,-4.608835E-2,8.073912E-3,-2.3026799E-1,1.0610911E0,-7.464912E-2,3.169653E-2,3.240541E-2,-2.6025996E-2,1.4987843E-2,2.3253845E-1,9.900755E-2,5.620128E-2,-4.0279835E-2,-1.9182755E-1,6.526952E-2,-1.9737516E-1,-1.4765595E-2,3.6598095E-1,-7.005168E-1,1.7450416E-1,1.1378678E0,-6.281757E-1,-1.7654622E0,-4.686222E-1],"split_indices":[8,8,1,3,8,1,1,2,8,8,5,2,1,3,2,6,3,1,6,0,6,8,5,7,3,2,7,0,3,8,3,5,3,1,0,0,5,1,7,7,3,0,0,4,8,2,2,7,7,8,8,0,0,8,7,6,2,8,2,6,3,5,3,0,0,0,0,0,0,0,0,0,0,0,0,0,0,0,0,0,0,0,0,0,0,0,0,0,0,0,0,0,0,0,0,0,0,0,0,0,0,0,0,0,0,0,0,0,0,0,0,0,0,0,0,0,0,0,0,0,0,0,0,0,0,0,0],"split_type":[0,0,0,0,0,0,0,0,0,0,0,0,0,0,0,0,0,0,0,0,0,0,0,0,0,0,0,0,0,0,0,0,0,0,0,0,0,0,0,0,0,0,0,0,0,0,0,0,0,0,0,0,0,0,0,0,0,0,0,0,0,0,0,0,0,0,0,0,0,0,0,0,0,0,0,0,0,0,0,0,0,0,0,0,0,0,0,0,0,0,0,0,0,0,0,0,0,0,0,0,0,0,0,0,0,0,0,0,0,0,0,0,0,0,0,0,0,0,0,0,0,0,0,0,0,0,0],"sum_hessian":[3.195454E6,5.26035E5,2.669419E6,7.09E4,4.55135E5,1.884317E6,7.85102E5,3.9142E4,3.1758E4,3.56667E5,9.8468E4,6.00893E5,1.283424E6,7.10847E5,7.4255E4,3.876E4,3.82E2,2.7074E4,4.684E3,3.19821E5,3.6846E4,4.8138E4,5.033E4,5.87689E5,1.3204E4,6.53587E5,6.29837E5,5.69982E5,1.40865E5,7.3308E4,9.47E2,3.7779E4,9.81E2,1.49E2,2.33E2,2.6241E4,8.33E2,1.561E3,3.123E3,6.31E4,2.56721E5,2.3917E4,1.2929E4,3.5822E4,1.2316E4,1.965E3,4.8365E4,4.75451E5,1.12238E5,6.13E3,7.074E3,6.39112E5,1.4475E4,9.6944E4,5.32893E5,1.14415E5,4.55567E5,7.0869E4,6.9996E4,7.2558E4,7.5E2,1.54E2,7.93E2,1.9297E4,1.8482E4,8.6E2,1.21E2,9.1E1,5.8E1,4.2E1,1.91E2,1.9543E4,6.698E3,4.19E2,4.14E2,1.558E3,3E0,2.071E3,1.052E3,3.0144E4,3.2956E4,2.05662E5,5.1059E4,1.3553E4,1.0364E4,7.544E3,5.385E3,1.7002E4,1.882E4,6.066E3,6.25E3,5.71E2,1.394E3,1.5939E4,3.2426E4,2.84472E5,1.90979E5,9.3039E4,1.9199E4,4.23E3,1.9E3,2.121E3,4.953E3,4.92114E5,1.46998E5,1.4264E4,2.11E2,7.3738E4,2.3206E4,4.13655E5,1.19238E5,1.11302E5,3.113E3,1.47553E5,3.08014E5,6.6645E4,4.224E3,6.8258E4,1.738E3,7.1316E4,1.242E3,6.96E2,5.4E1,6.7E1,8.7E1,3.83E2,4.1E2],"tree_param":{"num_deleted":"0","num_feature":"9","num_nodes":"127","size_leaf_vector":"1"}},{"base_weights":[-2.2053466E-5,-5.314175E-1,1.3541938E-1,-1.1658616E0,-4.051351E-1,9.9075025E-1,9.197548E-2,-1.1120996E0,-4.826787E0,-3.7323567E-1,-1.926956E0,1.0730742E0,-2.8007789E0,-3.313042E-1,2.1719277E-1,-1.0502306E0,-3.4883645E0,-8.34454E0,-1.0114007E0,-4.8380533E-1,-1.0012461E-1,-7.745683E-1,-3.251974E0,7.1495575E-1,1.409509E0,-2.5506573E0,-2.5828072E1,-8.01359E-2,-1.1082026E0,3.184102E-1,-1.9201419E-1,-3.130037E-1,-1.2674135E0,-4.023252E0,5.6101503E0,-4.55585E0,-1.1724241E1,-5.185442E-1,-1.7274496E1,-8.9759246E-2,-6.790012E-1,-5.392002E-2,-1.5124942E0,-6.355402E-1,-1.3956292E1,2.521018E0,-3.8475516E0,9.659404E-1,2.512801E-1,1.6815113E0,9.362262E-1,8.654261E-1,-4.450142E0,-4.3057575E1,7.3272866E-1,-2.8425232E-1,5.818051E-1,-1.6061783E0,-5.115613E-1,6.7518994E-2,4.7490454E-1,-8.047188E-1,4.3434355E-1,-5.9285708E-2,1.850219E-1,-1.6132008E-1,-6.953304E-2,-6.823715E-1,-2.2564924E-1,-1.6440637E-1,1.2508873E0,-5.9332633E-1,1.2510183E0,-1.0279397E0,-4.605083E0,-1.260524E-1,1.5658906E0,-3.2400796E0,-6.316556E-1,-3.0844418E-2,3.208251E-2,-1.3791326E-1,-5.9557773E-2,-3.008297E-2,3.013791E-2,-5.9374326E-1,-1.1768462E-1,-8.140517E-2,7.0305437E-1,-3.5378057E-1,-3.1468606E0,-1.4901994E-1,6.069798E-1,-3.9816967E-1,8.9281887E-1,2.7564263E-2,1.6251433E-1,-7.164175E-2,1.1271226E-1,1.4482927E-1,2.2217873E-1,-7.2432295E-3,1.1967639E-1,-5.9764147E-1,1.9208717E-1,-4.7142133E-1,1.7492243E0,-4.8359537E0,-2.066096E0,-2.4071977E0,4.027371E0,2.8450048E-2,-4.1920558E-2,6.6150757E-3,8.187638E-2,-1.2011359E-1,-2.0156883E-1,-7.8094564E-2,9.040879E-4,9.231101E-3,-2.6588795E-1,7.902373E-2,3.2090604E-2,-2.5553716E-2,-1.0652315E-1,5.8915537E-2,-3.2224067E-2],"categories":[],"categories_nodes":[],"categories_segments":[],"categories_sizes":[],"default_left":[0,0,0,0,0,0,0,0,0,0,0,0,0,0,0,0,0,0,0,0,0,0,0,0,0,0,0,0,0,0,0,0,0,0,0,0,0,0,0,0,0,0,0,0,0,0,0,0,0,0,0,0,0,0,0,0,0,0,0,0,0,0,0,0,0,0,0,0,0,0,0,0,0,0,0,0,0,0,0,0,0,0,0,0,0,0,0,0,0,0,0,0,0,0,0,0,0,0,0,0,0,0,0,0,0,0,0,0,0,0,0,0,0,0,0,0,0,0,0,0,0,0,0,0,0,0,0],"id":12,"left_children":[1,3,5,7,9,11,13,15,17,19,21,23,25,27,29,31,33,35,37,39,41,43,45,47,49,51,53,55,57,59,61,63,65,67,69,71,73,75,77,79,81,83,85,87,89,91,93,95,97,99,101,103,105,107,109,111,113,115,117,119,121,123,125,-1,-1,-1,-1,-1,-1,-1,-1,-1,-1,-1,-1,-1,-1,-1,-1,-1,-1,-1,-1,-1,-1,-1,-1,-1,-1,-1,-1,-1,-1,-1,-1,-1,-1,-1,-1,-1,-1,-1,-1,-1,-1,-1,-1,-1,-1,-1,-1,-1,-1,-1,-1,-1,-1,-1,-1,-1,-1,-1,-1,-1,-1,-1,-1],"loss_changes":[2.2998645E5,5.199925E4,9.462233E4,2.1199828E4,2.627636E4,3.8422305E4,1.28441836E5,1.56069375E4,2.0915812E4,1.6010195E4,1.6966305E4,1.451375E4,1.5001301E4,1.0795273E5,7.745802E4,1.6569531E4,1.313341E4,1.0331145E4,5.9945557E3,2.9027406E4,9.970616E3,1.0886117E4,1.778209E4,6.79108E3,7.994742E3,1.680335E4,1.2845174E4,5.648688E4,4.015697E4,5.8865844E4,1.4232038E5,1.4258521E4,1.5812336E4,1.2576613E4,7.5272866E3,9.100906E3,2.0753973E4,8.758169E3,3.4419067E3,1.122529E4,1.4739695E4,1.2979269E4,7.1814873E3,8.057884E3,1.1200682E4,6.898751E3,8.066414E3,1.7228512E4,1.7372205E4,4.9668125E3,5.9581426E3,6.6983022E3,9.724273E3,1.01952344E3,1.2739097E4,2.4526268E4,1.2039566E4,1.22173125E4,8.623493E3,3.892936E4,4.4837594E4,2.6820266E4,2.1479156E4,0E0,0E0,0E0,0E0,0E0,0E0,0E0,0E0,0E0,0E0,0E0,0E0,0E0,0E0,0E0,0E0,0E0,0E0,0E0,0E0,0E0,0E0,0E0,0E0,0E0,0E0,0E0,0E0,0E0,0E0,0E0,0E0,0E0,0E0,0E0,0E0,0E0,0E0,0E0,0E0,0E0,0E0,0E0,0E0,0E0,0E0,0E0,0E0,0E0,0E0,0E0,0E0,0E0,0E0,0E0,0E0,0E0,0E0,0E0,0E0,0E0,0E0,0E0,0E0],"parents":[2147483647,0,0,1,1,2,2,3,3,4,4,5,5,6,6,7,7,8,8,9,9,10,10,11,11,12,12,13,13,14,14,15,15,16,16,17,17,18,18,19,19,20,20,21,21,22,22,23,23,24,24,25,25,26,26,27,27,28,28,29,29,30,30,31,31,32,32,33,33,34,34,35,35,36,36,37,37,38,38,39,39,40,40,41,41,42,42,43,43,44,44,45,45,46,46,47,47,48,48,49,49,50,50,51,51,52,52,53,53,54,54,55,55,56,56,57,57,58,58,59,59,60,60,61,61,62,62],"right_children":[2,4,6,8,10,12,14,16,18,20,22,24,26,28,30,32,34,36,38,40,42,44,46,48,50,52,54,56,58,60,62,64,66,68,70,72,74,76,78,80,82,84,86,88,90,92,94,96,98,100,102,104,106,108,110,112,114,116,118,120,122,124,126,-1,-1,-1,-1,-1,-1,-1,-1,-1,-1,-1,-1,-1,-1,-1,-1,-1,-1,-1,-1,-1,-1,-1,-1,-1,-1,-1,-1,-1,-1,-1,-1,-1,-1,-1,-1,-1,-1,-1,-1,-1,-1,-1,-1,-1,-1,-1,-1,-1,-1,-1,-1,-1,-1,-1,-1,-1,-1,-1,-1,-1,-1,-1,-1],"split_conditions":[3.85698E5,3.7938E4,4.61997E5,3E0,3E0,3E0,8.00072E5,3E0,9E0,3E0,6E0,3E0,4E0,7.2318E5,9E0,1E0,5E0,4E0,3.0475E4,1E0,5E0,4E0,6.8643E4,2E0,5E0,4E0,2E0,6.64702E5,7.65625E5,4E0,1E1,3.0475E4,3E0,2E0,3E0,6E0,3.0475E4,2.2153E4,1E0,2E0,2E0,3E0,6.0988E4,5E0,2.60012E5,1E0,3E0,1E0,2E0,4.37567E5,1E0,1E0,5E0,9E0,4E0,4.99311E5,4E0,7.45174E5,2E0,1.912672E6,1E0,1.161704E6,1.723626E6,-5.9285708E-2,1.850219E-1,-1.6132008E-1,-6.953304E-2,-6.823715E-1,-2.2564924E-1,-1.6440637E-1,1.2508873E0,-5.9332633E-1,1.2510183E0,-1.0279397E0,-4.605083E0,-1.260524E-1,1.5658906E0,-3.2400796E0,-6.316556E-1,-3.0844418E-2,3.208251E-2,-1.3791326E-1,-5.9557773E-2,-3.008297E-2,3.013791E-2,-5.9374326E-1,-1.1768462E-1,-8.140517E-2,7.0305437E-1,-3.5378057E-1,-3.1468606E0,-1.4901994E-1,6.069798E-1,-3.9816967E-1,8.9281887E-1,2.7564263E-2,1.6251433E-1,-7.164175E-2,1.1271226E-1,1.4482927E-1,2.2217873E-1,-7.2432295E-3,1.1967639E-1,-5.9764147E-1,1.9208717E-1,-4.7142133E-1,1.7492243E0,-4.8359537E0,-2.066096E0,-2.4071977E0,4.027371E0,2.8450048E-2,-4.1920558E-2,6.6150757E-3,8.187638E-2,-1.2011359E-1,-2.0156883E-1,-7.8094564E-2,9.040879E-4,9.231101E-3,-2.6588795E-1,7.902373E-2,3.2090604E-2,-2.5553716E-2,-1.0652315E-1,5.8915537E-2,-3.2224067E-2],"split_indices":[8,8,8,2,2,2,8,6,3,1,3,7,1,8,3,1,0,3,8,1,0,1,8,7,7,3,4,8,8,3,3,8,1,1,7,7,8,8,4,6,3,0,8,0,8,4,6,7,1,8,0,7,0,3,3,8,3,8,6,8,2,8,8,0,0,0,0,0,0,0,0,0,0,0,0,0,0,0,0,0,0,0,0,0,0,0,0,0,0,0,0,0,0,0,0,0,0,0,0,0,0,0,0,0,0,0,0,0,0,0,0,0,0,0,0,0,0,0,0,0,0,0,0,0,0,0,0],"split_type":[0,0,0,0,0,0,0,0,0,0,0,0,0,0,0,0,0,0,0,0,0,0,0,0,0,0,0,0,0,0,0,0,0,0,0,0,0,0,0,0,0,0,0,0,0,0,0,0,0,0,0,0,0,0,0,0,0,0,0,0,0,0,0,0,0,0,0,0,0,0,0,0,0,0,0,0,0,0,0,0,0,0,0,0,0,0,0,0,0,0,0,0,0,0,0,0,0,0,0,0,0,0,0,0,0,0,0,0,0,0,0,0,0,0,0,0,0,0,0,0,0,0,0,0,0,0,0],"sum_hessian":[3.195454E6,6.49029E5,2.546425E6,1.07739E5,5.4129E5,1.23085E5,2.42334E6,1.06181E5,1.558E3,5.30178E5,1.1112E4,1.2047E5,2.615E3,5.53228E5,1.870112E6,1.03488E5,2.693E3,8.1E2,7.48E2,3.7739E5,1.52788E5,5.944E3,5.168E3,5.8356E4,6.2114E4,2.588E3,2.7E1,4.18069E5,1.35159E5,1.499268E6,3.70844E5,2.355E4,7.9938E4,2.544E3,1.49E2,3.83E2,4.27E2,7.27E2,2.1E1,1.25017E5,2.52373E5,1.47949E5,4.839E3,5.883E3,6.1E1,4.83E2,4.685E3,3.7861E4,2.0495E4,3.9443E4,2.2671E4,9.25E2,1.663E3,1.6E1,1.1E1,3.19537E5,9.8532E4,7.367E4,6.1489E4,5.75934E5,9.23334E5,1.87465E5,1.83379E5,2.0853E4,2.697E3,4.9822E4,3.0116E4,9.83E2,1.561E3,7.3E1,7.6E1,3.55E2,2.8E1,4.11E2,1.6E1,6.96E2,3.1E1,8E0,1.3E1,8.1571E4,4.3446E4,2.6868E4,2.25505E5,8.7289E4,6.066E4,3.4E2,4.499E3,5.75E3,1.33E2,3.9E1,2.2E1,2.27E2,2.56E2,4.637E3,4.8E1,1.8495E4,1.9366E4,9.737E3,1.0758E4,2.7553E4,1.189E4,4.654E3,1.8017E4,1.23E2,8.02E2,1.644E3,1.9E1,1.2E1,4E0,7E0,4E0,6.1279E4,2.58258E5,3.1023E4,6.7509E4,3.7039E4,3.6631E4,4.0521E4,2.0968E4,5.70745E5,5.189E3,3.02966E5,6.20368E5,6.0316E4,1.27149E5,1.5223E5,3.1149E4],"tree_param":{"num_deleted":"0","num_feature":"9","num_nodes":"127","size_leaf_vector":"1"}},{"base_weights":[-2.4139761E-5,-4.7829148E-1,1.2187607E-1,-1.0493411E0,-3.6462736E-1,-2.3211169E-1,2.1051474E-1,-1.0008866E0,-4.34886E0,-3.359144E-1,-1.7344333E0,6.4024204E-1,-2.7639174E-1,3.0191636E-1,-1.5949914E-1,-8.207048E-1,-1.7496312E0,-7.516221E0,-9.135069E-1,-7.151638E-1,-2.6578334E-1,-1.2028298E0,-4.070066E0,1.0368685E-1,1.1154288E0,-8.117567E-1,-1.2674843E-1,-1.799327E-1,3.9037752E-1,-6.580504E-1,3.4387866E-1,-4.0387657E-1,-1.2128356E0,-1.9460689E0,4.438128E0,-4.098553E0,-1.0564979E1,-4.647114E-1,-1.5723037E1,-6.755981E-1,-2.1283262E0,-3.7562305E-1,4.8751696E-3,-1.3582717E0,5.7565217E0,-6.3848577E0,-1.9962039E0,7.378846E-1,-4.824413E-1,9.9618894E-1,5.7279606E0,-5.7164264E-1,-1.7328322E0,2.2397578E-1,-2.8099343E-1,-4.9613816E-1,2.0487655E-2,8.383004E-1,2.8545737E-1,-5.017912E-1,-1.3318787E0,2.9201022E-1,1.8242278E0,-3.1363517E-2,-4.418582E-1,-1.8381073E0,-4.881827E-2,-3.513612E-1,-1.6554712E-1,7.311554E-1,-2.7792221E-2,-5.341605E-1,1.1302307E0,-9.253952E-1,-4.1716633E0,-1.1346519E-1,1.4141952E0,7.026386E-1,-2.116882E0,-3.75664E-2,-8.3019726E-2,-3.183737E-1,2.6702357E-2,-7.013356E-4,-5.5802435E-2,5.4518906E-3,-1.5225317E-1,6.239449E-3,-2.0996164E-1,2.1371615E-1,2.144787E0,-8.0862945E-1,-3.3058795E-1,-4.6440417E-1,9.371796E-2,3.178696E-1,4.490222E-2,3.483733E-2,-1.3228199E-1,5.4869045E-2,2.0607077E-1,6.300026E-1,-2.148704E0,-7.401448E-2,4.11602E-2,-6.493048E-2,-2.2548501E-1,4.8919436E-2,-2.3714183E-2,-8.01489E-2,-1.8426733E-2,-7.159478E-2,3.4470182E-2,6.346771E-3,-2.0634823E-1,6.8182655E-2,1.12516224E-1,-3.394991E-2,4.890289E-2,7.856048E-3,-6.7879185E-2,-1.2780221E-1,-1.115043E0,3.920214E-2,-4.095515E-2,2.1631351E-1,-1.2065496E0],"categories":[],"categories_nodes":[],"categories_segments":[],"categories_sizes":[],"default_left":[0,0,0,0,0,0,0,0,0,0,0,0,0,0,0,0,0,0,0,0,0,0,0,0,0,0,0,0,0,0,0,0,0,0,0,0,0,0,0,0,0,0,0,0,0,0,0,0,0,0,0,0,0,0,0,0,0,0,0,0,0,0,0,0,0,0,0,0,0,0,0,0,0,0,0,0,0,0,0,0,0,0,0,0,0,0,0,0,0,0,0,0,0,0,0,0,0,0,0,0,0,0,0,0,0,0,0,0,0,0,0,0,0,0,0,0,0,0,0,0,0,0,0,0,0,0,0],"id":13,"left_children":[1,3,5,7,9,11,13,15,17,19,21,23,25,27,29,31,33,35,37,39,41,43,45,47,49,51,53,55,57,59,61,63,65,67,69,71,73,75,77,79,81,83,85,87,89,91,93,95,97,99,101,103,105,107,109,111,113,115,117,119,121,123,125,-1,-1,-1,-1,-1,-1,-1,-1,-1,-1,-1,-1,-1,-1,-1,-1,-1,-1,-1,-1,-1,-1,-1,-1,-1,-1,-1,-1,-1,-1,-1,-1,-1,-1,-1,-1,-1,-1,-1,-1,-1,-1,-1,-1,-1,-1,-1,-1,-1,-1,-1,-1,-1,-1,-1,-1,-1,-1,-1,-1,-1,-1,-1,-1],"loss_changes":[1.862979E5,4.2126766E4,7.989927E4,1.722075E4,2.1289047E4,1.9697992E4,6.8873836E4,1.4323594E4,1.6956621E4,1.41010625E4,1.3793348E4,6.280665E3,3.8879516E4,6.961008E4,1.0123936E5,1.3988973E4,2.5042047E4,8.407023E3,4.970885E3,4.624789E3,1.3301967E4,9.802207E3,9.876402E3,4.3015415E3,7.17946E3,2.3446062E4,2.0518635E4,1.6053219E4,6.4843812E4,2.1339469E4,1.5412432E4,1.502977E4,5.486397E5,9.087359E3,8.593508E3,7.411693E3,1.7093758E4,7.1399595E3,2.8742852E3,3.731879E3,5.6966113E3,2.1399246E4,9.794172E3,9.3283545E3,1.1199106E4,5.070508E3,8.454982E3,3.9172886E3,4.1994277E3,6.065923E3,5.2574883E3,1.3933223E4,1.2398078E4,1.4168951E4,1.3262568E4,1.8162787E4,1.3887021E4,1.1753047E4,1.4222544E5,1.6900492E4,2.0160312E4,1.3607699E4,3.2012404E4,0E0,0E0,0E0,0E0,0E0,0E0,0E0,0E0,0E0,0E0,0E0,0E0,0E0,0E0,0E0,0E0,0E0,0E0,0E0,0E0,0E0,0E0,0E0,0E0,0E0,0E0,0E0,0E0,0E0,0E0,0E0,0E0,0E0,0E0,0E0,0E0,0E0,0E0,0E0,0E0,0E0,0E0,0E0,0E0,0E0,0E0,0E0,0E0,0E0,0E0,0E0,0E0,0E0,0E0,0E0,0E0,0E0,0E0,0E0,0E0,0E0,0E0,0E0,0E0],"parents":[2147483647,0,0,1,1,2,2,3,3,4,4,5,5,6,6,7,7,8,8,9,9,10,10,11,11,12,12,13,13,14,14,15,15,16,16,17,17,18,18,19,19,20,20,21,21,22,22,23,23,24,24,25,25,26,26,27,27,28,28,29,29,30,30,31,31,32,32,33,33,34,34,35,35,36,36,37,37,38,38,39,39,40,40,41,41,42,42,43,43,44,44,45,45,46,46,47,47,48,48,49,49,50,50,51,51,52,52,53,53,54,54,55,55,56,56,57,57,58,58,59,59,60,60,61,61,62,62],"right_children":[2,4,6,8,10,12,14,16,18,20,22,24,26,28,30,32,34,36,38,40,42,44,46,48,50,52,54,56,58,60,62,64,66,68,70,72,74,76,78,80,82,84,86,88,90,92,94,96,98,100,102,104,106,108,110,112,114,116,118,120,122,124,126,-1,-1,-1,-1,-1,-1,-1,-1,-1,-1,-1,-1,-1,-1,-1,-1,-1,-1,-1,-1,-1,-1,-1,-1,-1,-1,-1,-1,-1,-1,-1,-1,-1,-1,-1,-1,-1,-1,-1,-1,-1,-1,-1,-1,-1,-1,-1,-1,-1,-1,-1,-1,-1,-1,-1,-1,-1,-1,-1,-1,-1,-1,-1,-1],"split_conditions":[3.85698E5,3.7938E4,1E0,3E0,3E0,4.61997E5,9E0,9E0,9E0,1E0,3.26678E5,2E0,7.8589E5,1E0,1E1,1E0,4E0,4E0,3.0475E4,4E0,3E0,5E0,2E0,1E0,3E0,7.2318E5,1.128105E6,4E0,2E0,5E0,6E0,3E0,2E0,1E0,2E0,6E0,3.0475E4,2.2153E4,1E0,1E0,8E0,1E0,5E0,4E0,2.34856E5,4E0,3.55756E5,2E0,1E0,4.37567E5,3E0,6.86277E5,1E0,4E0,1E0,1.604255E6,3E0,2E0,3E0,2E0,1.912672E6,1.723626E6,3E0,-3.1363517E-2,-4.418582E-1,-1.8381073E0,-4.881827E-2,-3.513612E-1,-1.6554712E-1,7.311554E-1,-2.7792221E-2,-5.341605E-1,1.1302307E0,-9.253952E-1,-4.1716633E0,-1.1346519E-1,1.4141952E0,7.026386E-1,-2.116882E0,-3.75664E-2,-8.3019726E-2,-3.183737E-1,2.6702357E-2,-7.013356E-4,-5.5802435E-2,5.4518906E-3,-1.5225317E-1,6.239449E-3,-2.0996164E-1,2.1371615E-1,2.144787E0,-8.0862945E-1,-3.3058795E-1,-4.6440417E-1,9.371796E-2,3.178696E-1,4.490222E-2,3.483733E-2,-1.3228199E-1,5.4869045E-2,2.0607077E-1,6.300026E-1,-2.148704E0,-7.401448E-2,4.11602E-2,-6.493048E-2,-2.2548501E-1,4.8919436E-2,-2.3714183E-2,-8.01489E-2,-1.8426733E-2,-7.159478E-2,3.4470182E-2,6.346771E-3,-2.0634823E-1,6.8182655E-2,1.12516224E-1,-3.394991E-2,4.890289E-2,7.856048E-3,-6.7879185E-2,